{"learner":{"attributes":{"scikit_learn":"{\"_estimator_type\": \"classifier\"}"},"feature_names":["duration","packet_IAT_std","fwd_packets_IAT_std","bwd_packets_IAT_std","bytes_rate","packets_rate","fwd_packets_rate","bwd_packets_rate","down_up_rate","bwd_packets_count","payload_bytes_mean","payload_bytes_std","payload_bytes_max","payload_bytes_min","avg_segment_size","fin_flag_counts","syn_flag_counts","rst_flag_counts","ack_flag_counts","urg_flag_counts","cwr_flag_counts","ece_flag_counts","fwd_init_win_bytes","bwd_init_win_bytes","fwd_avg_segment_size","bwd_avg_segment_size","active_mean","active_std","idle_mean","idle_std","bwd_total_header_bytes","subflow_fwd_bytes","subflow_bwd_bytes"],"feature_types":["float","float","float","float","float","float","float","float","float","int","float","float","int","int","float","int","int","int","int","int","int","int","int","int","float","float","float","float","float","float","int","float","float"],"gradient_booster":{"model":{"cats":{"enc":[],"feature_segments":[],"sorted_idx":[]},"gbtree_model_param":{"num_parallel_tree":"1","num_trees":"300"},"iteration_indptr":[0,1,2,3,4,5,6,7,8,9,10,11,12,13,14,15,16,17,18,19,20,21,22,23,24,25,26,27,28,29,30,31,32,33,34,35,36,37,38,39,40,41,42,43,44,45,46,47,48,49,50,51,52,53,54,55,56,57,58,59,60,61,62,63,64,65,66,67,68,69,70,71,72,73,74,75,76,77,78,79,80,81,82,83,84,85,86,87,88,89,90,91,92,93,94,95,96,97,98,99,100,101,102,103,104,105,106,107,108,109,110,111,112,113,114,115,116,117,118,119,120,121,122,123,124,125,126,127,128,129,130,131,132,133,134,135,136,137,138,139,140,141,142,143,144,145,146,147,148,149,150,151,152,153,154,155,156,157,158,159,160,161,162,163,164,165,166,167,168,169,170,171,172,173,174,175,176,177,178,179,180,181,182,183,184,185,186,187,188,189,190,191,192,193,194,195,196,197,198,199,200,201,202,203,204,205,206,207,208,209,210,211,212,213,214,215,216,217,218,219,220,221,222,223,224,225,226,227,228,229,230,231,232,233,234,235,236,237,238,239,240,241,242,243,244,245,246,247,248,249,250,251,252,253,254,255,256,257,258,259,260,261,262,263,264,265,266,267,268,269,270,271,272,273,274,275,276,277,278,279,280,281,282,283,284,285,286,287,288,289,290,291,292,293,294,295,296,297,298,299,300],"tree_info":[0,0,0,0,0,0,0,0,0,0,0,0,0,0,0,0,0,0,0,0,0,0,0,0,0,0,0,0,0,0,0,0,0,0,0,0,0,0,0,0,0,0,0,0,0,0,0,0,0,0,0,0,0,0,0,0,0,0,0,0,0,0,0,0,0,0,0,0,0,0,0,0,0,0,0,0,0,0,0,0,0,0,0,0,0,0,0,0,0,0,0,0,0,0,0,0,0,0,0,0,0,0,0,0,0,0,0,0,0,0,0,0,0,0,0,0,0,0,0,0,0,0,0,0,0,0,0,0,0,0,0,0,0,0,0,0,0,0,0,0,0,0,0,0,0,0,0,0,0,0,0,0,0,0,0,0,0,0,0,0,0,0,0,0,0,0,0,0,0,0,0,0,0,0,0,0,0,0,0,0,0,0,0,0,0,0,0,0,0,0,0,0,0,0,0,0,0,0,0,0,0,0,0,0,0,0,0,0,0,0,0,0,0,0,0,0,0,0,0,0,0,0,0,0,0,0,0,0,0,0,0,0,0,0,0,0,0,0,0,0,0,0,0,0,0,0,0,0,0,0,0,0,0,0,0,0,0,0,0,0,0,0,0,0,0,0,0,0,0,0,0,0,0,0,0,0,0,0,0,0,0,0,0,0,0,0,0,0,0,0,0,0,0,0,0,0,0,0,0,0],"trees":[{"base_weights":[1.4056948E-3,5.177989E-1,-1.7890843E0,-3.7478417E-1,1.5111556E0,-1.6397536E0,-1.9986199E-1,-1.2657082E0,1.5929002E0,1.731579E0,-1.9869252E0,-1.9616727E0,-1.4884676E0,-1.6043968E0,1.8030201E0,1.9912397E0,-1.9948435E-1,1.9179642E0,-1.4223844E-1,-4.8333332E-2,-1.996961E-1,-1.9690572E-1,-0E0,-1.5012424E0,1.5836735E-1,-1.2406653E0,-1.7717559E0,-1.2319149E0,1.9692217E0,-1.7103449E-1,1.998059E0,1.9513979E0,-1.1150985E0,-1.3976284E0,-1.7309402E-1,3.661597E-2,-1.9574986E-1,-1.7940435E-1,1.5677853E-1,2.516129E-2,-1.9046155E-1,1.9948927E-1,1.478919E-1,1.0962963E-1,1.9991513E-1,1.9652323E-1,-1.6248447E-1,-1.4628866E-1,7.8904115E-2,-1.5315364E-1,-5.327032E-2],"categories":[],"categories_nodes":[],"categories_segments":[],"categories_sizes":[],"default_left":[0,0,0,0,0,0,0,0,0,0,0,0,0,0,0,0,0,0,0,0,0,0,0,0,0,0,0,0,0,0,0,0,0,0,0,0,0,0,0,0,0,0,0,0,0,0,0,0,0,0,0],"id":0,"left_children":[1,3,5,7,9,11,-1,13,15,17,19,21,23,25,27,29,-1,31,-1,-1,-1,-1,-1,33,-1,35,37,39,41,-1,43,45,47,49,-1,-1,-1,-1,-1,-1,-1,-1,-1,-1,-1,-1,-1,-1,-1,-1,-1],"loss_changes":[2.9533812E4,2.1982814E4,2.2008984E2,2.2895594E4,9.051014E3,2.0034473E2,0E0,9.346313E3,5.821287E3,6.492082E3,9.2890625E0,1.9312988E1,1.1416113E2,4.903789E2,4.534431E2,9.594141E1,0E0,1.0592695E3,0E0,0E0,0E0,0E0,0E0,6.479443E1,0E0,2.94379E3,4.153828E2,4.7549118E1,7.3757324E0,0E0,1.1005859E0,5.133242E2,7.688226E1,2.2607251E2,0E0,0E0,0E0,0E0,0E0,0E0,0E0,0E0,0E0,0E0,0E0,0E0,0E0,0E0,0E0,0E0,0E0],"parents":[2147483647,0,0,1,1,2,2,3,3,4,4,5,5,7,7,8,8,9,9,10,10,11,11,12,12,13,13,14,14,15,15,17,17,23,23,25,25,26,26,27,27,28,28,30,30,31,31,32,32,33,33],"right_children":[2,4,6,8,10,12,-1,14,16,18,20,22,24,26,28,30,-1,32,-1,-1,-1,-1,-1,34,-1,36,38,40,42,-1,44,46,48,50,-1,-1,-1,-1,-1,-1,-1,-1,-1,-1,-1,-1,-1,-1,-1,-1,-1],"split_conditions":[6.8894244E2,8.192E3,2E0,2.68941E4,3.6E1,1.024E3,-1.9986199E-1,3.9096E4,8E0,6.5535E4,1.09E2,8.6E2,1.9335E3,1.19E2,5.256214E0,2.56E2,-1.9948435E-1,2.55E2,-1.4223844E-1,-4.8333332E-2,-1.996961E-1,-1.9690572E-1,-0E0,6.5535E4,1.5836735E-1,1E0,9.99354E3,2.3411076E-1,1.13217115E-1,-1.7103449E-1,2E1,2E0,3.84E1,8.192E3,-1.7309402E-1,3.661597E-2,-1.9574986E-1,-1.7940435E-1,1.5677853E-1,2.516129E-2,-1.9046155E-1,1.9948927E-1,1.478919E-1,1.0962963E-1,1.9991513E-1,1.9652323E-1,-1.6248447E-1,-1.4628866E-1,7.8904115E-2,-1.5315364E-1,-5.327032E-2],"split_indices":[5,22,16,2,31,22,0,23,24,22,0,32,25,22,5,22,0,23,0,0,0,0,0,22,0,9,2,5,0,0,31,16,10,22,0,0,0,0,0,0,0,0,0,0,0,0,0,0,0,0,0],"split_type":[0,0,0,0,0,0,0,0,0,0,0,0,0,0,0,0,0,0,0,0,0,0,0,0,0,0,0,0,0,0,0,0,0,0,0,0,0,0,0,0,0,0,0,0,0,0,0,0,0,0,0],"sum_hessian":[3.19405E4,2.479125E4,7.14925E3,1.305825E4,1.1733E4,4.17975E3,2.9695E3,8.98875E3,4.0695E3,1.1038E4,6.95E2,1.33225E3,2.8475E3,8.09575E3,8.93E2,3.66325E3,4.0625E2,1.04225E4,6.155E2,5E0,6.9E2,1.32725E3,5E0,2.83625E3,1.125E1,2.554E3,5.54175E3,4.6E1,8.47E2,6.25E0,3.657E3,1.030925E4,1.1325E2,1.95975E3,8.765E2,7.88E2,1.766E3,5.5055E3,3.625E1,1.45E1,3.15E1,8.0175E2,4.525E1,5.75E0,3.65125E3,1.027E4,3.925E1,9.6E1,1.725E1,1.69625E3,2.635E2],"tree_param":{"num_deleted":"0","num_feature":"33","num_nodes":"51","size_leaf_vector":"1"}},{"base_weights":[-1.3821179E-3,4.689225E-1,-1.6268461E0,-3.442243E-1,1.3723778E0,-1.8134652E0,-1.4854529E0,-1.1576318E0,1.4480968E0,1.5751643E0,-1.8072505E0,-1.8172748E-1,-1.4311285E0,-1.3563274E0,-1.7858242E0,-1.429819E0,4.143768E-1,1.8102709E0,-1.814417E-1,1.7454753E0,-1.2832061E0,-5.0365478E-2,-1.8162195E-1,-2.9699683E-2,-1.7740051E-1,-1.2639657E0,-1.5643437E-1,-1.8142436E-1,1.6664281E-1,-9.955879E-1,-1.603367E0,1.8067392E0,-1.7879366E0,-1.5821095E-1,1.8167466E0,1.7706771E0,-9.3189025E-1,-1.2875477E0,-6.819662E-2,-1.4105002E0,-1.120112E-1,3.0384807E-2,-1.7288126E-1,-1.6264473E-1,1.3792038E-1,1.2549488E-1,1.8168186E-1,-1.8195984E-1,-1.3395081E-1,8.570426E-2,1.8179971E-1,1.7890736E-1,-1.9349357E-1,2.9546428E-2,-1.543217E-1,-1.273686E-1,-1.6548042E-1,-1.2806976E-1,-1.82445E-1,-1.8027745E-1,2.1418033E-3],"categories":[],"categories_nodes":[],"categories_segments":[],"categories_sizes":[],"default_left":[0,0,0,0,0,0,0,0,0,0,0,0,0,0,0,0,0,0,0,0,0,0,0,0,0,0,0,0,0,0,0,0,0,0,0,0,0,0,0,0,0,0,0,0,0,0,0,0,0,0,0,0,0,0,0,0,0,0,0,0,0],"id":1,"left_children":[1,3,5,7,9,11,13,15,17,19,21,-1,23,25,27,29,31,33,-1,35,37,-1,-1,-1,-1,39,-1,-1,-1,41,43,45,47,-1,49,51,53,55,-1,57,59,-1,-1,-1,-1,-1,-1,-1,-1,-1,-1,-1,-1,-1,-1,-1,-1,-1,-1,-1,-1],"loss_changes":[2.42982E4,1.8110818E4,1.851836E2,1.8917873E4,7.5324434E3,1.5449219E0,1.5488574E2,3.8196865E3,4.789616E3,5.346584E3,7.0444336E0,0E0,1.2973862E1,5.24292E1,1.2257715E2,5.715078E2,4.0448555E3,8.300391E1,0E0,7.008535E2,5.3778076E-1,0E0,0E0,0E0,0E0,3.3337427E2,0E0,0E0,0E0,2.0732678E3,3.7633984E2,1.9067383E0,4.501831E0,0E0,2.5429688E0,7.032207E2,7.354031E1,7.1588135E-1,0E0,9.157422E1,5.080563E1,0E0,0E0,0E0,0E0,0E0,0E0,0E0,0E0,0E0,0E0,0E0,0E0,0E0,0E0,0E0,0E0,0E0,0E0,0E0,0E0],"parents":[2147483647,0,0,1,1,2,2,3,3,4,4,5,5,6,6,7,7,8,8,9,9,10,10,12,12,13,13,14,14,15,15,16,16,17,17,19,19,20,20,25,25,29,29,30,30,31,31,32,32,34,34,35,35,36,36,37,37,39,39,40,40],"right_children":[2,4,6,8,10,12,14,16,18,20,22,-1,24,26,28,30,32,34,-1,36,38,-1,-1,-1,-1,40,-1,-1,-1,42,44,46,48,-1,50,52,54,56,-1,58,60,-1,-1,-1,-1,-1,-1,-1,-1,-1,-1,-1,-1,-1,-1,-1,-1,-1,-1,-1,-1],"split_conditions":[6.8894244E2,8.192E3,6.769852E-1,2.68941E4,3.6E1,6E0,3.2E1,1.6610447E1,8E0,6.5535E4,1.09E2,-1.8172748E-1,6.5E0,6.5535E4,1.2918889E3,1.19E2,2.0404415E1,2.56E2,-1.814417E-1,2E0,2E0,-5.0365478E-2,-1.8162195E-1,-2.9699683E-2,-1.7740051E-1,1.2E3,-1.5643437E-1,-1.8142436E-1,1.6664281E-1,2E1,1.4191633E3,1.7533094E1,1E0,-1.5821095E-1,2E1,2.015907E6,1.46E4,1E0,-6.819662E-2,1.025E3,1E0,3.0384807E-2,-1.7288126E-1,-1.6264473E-1,1.3792038E-1,1.2549488E-1,1.8168186E-1,-1.8195984E-1,-1.3395081E-1,8.570426E-2,1.8179971E-1,1.7890736E-1,-1.9349357E-1,2.9546428E-2,-1.543217E-1,-1.273686E-1,-1.6548042E-1,-1.2806976E-1,-1.82445E-1,-1.8027745E-1,2.1418033E-3],"split_indices":[5,22,8,2,31,32,30,7,24,22,0,0,24,22,14,22,5,22,0,16,16,0,0,0,0,22,0,0,0,30,2,7,17,0,31,0,22,18,0,22,17,0,0,0,0,0,0,0,0,0,0,0,0,0,0,0,0,0,0,0,0],"split_type":[0,0,0,0,0,0,0,0,0,0,0,0,0,0,0,0,0,0,0,0,0,0,0,0,0,0,0,0,0,0,0,0,0,0,0,0,0,0,0,0,0,0,0,0,0,0,0,0,0,0,0,0,0,0,0,0,0,0,0,0,0],"sum_hessian":[3.1782506E4,2.46508E4,7.1317046E3,1.2974094E4,1.1676708E4,3.0687947E3,4.06291E3,8.924366E3,4.0497273E3,1.0977156E4,6.9955194E2,3.0345442E3,3.4250668E1,2.8455122E3,1.2173977E3,7.607339E3,1.3170272E3,3.645512E3,4.042153E2,1.0360281E4,6.1687463E2,5.2469354E0,6.94305E2,8.451968E0,2.57987E1,1.975793E3,8.697192E2,1.207957E3,9.440682E0,2.174322E3,5.433017E3,8.070275E2,5.0999973E2,6.452695E0,3.6390593E3,1.0264043E4,9.623866E1,6.111536E2,5.721015E0,1.7525487E3,2.2324426E2,7.8448706E2,1.389835E3,5.3917812E3,4.123567E1,1.6906742E1,7.901208E2,4.733011E2,3.6698643E1,5.7327576E0,3.6333267E3,1.021388E4,5.0162582E1,3.2114933E1,6.412373E1,5.934931E2,1.7660524E1,1.3374873E3,4.1506134E2,1.5468744E1,2.0777553E2],"tree_param":{"num_deleted":"0","num_feature":"33","num_nodes":"61","size_leaf_vector":"1"}},{"base_weights":[9.912485E-4,4.3704703E-1,-1.4969E0,-3.0590317E-1,1.2699497E0,-1.3662728E0,-1.6818537E-1,-1.2634673E0,6.5107876E-1,1.4555805E0,-1.6718149E0,-1.6470847E0,-1.2383004E0,-8.176267E-1,-1.4580343E0,1.1355757E0,-1.6598474E0,1.6120273E0,-1.1729859E0,-4.6210404E-2,-1.680458E-1,-1.6539761E0,-4.9035598E-2,-1.2476276E0,1.3108824E-1,4.9289617E-1,-1.6599866E0,-1.4855574E-1,-1.4323336E0,1.3639501E0,-1.7012207E-1,-1.6848801E0,9.244421E-2,1.6408092E0,-9.546025E-1,-1.1775484E0,-5.292038E-2,-1.6633777E-1,-1.2768754E0,-1.1548966E0,-1.4524013E-1,7.8147076E-2,-1.2187896E-1,-1.6918181E-1,1.083292E-1,-1.4662383E-1,-1.3406098E-1,1.5231812E-1,-1.6709118E-1,-8.573754E-2,-1.6884372E-1,1.6517249E-1,-1.3354228E-1,-1.5798616E-1,-2.1730483E-2,-1.162673E-1,-1.5813206E-1,-1.5659195E-1,-7.6989464E-2,-1.2653913E-1,-4.5720484E-2],"categories":[],"categories_nodes":[],"categories_segments":[],"categories_sizes":[],"default_left":[0,0,0,0,0,0,0,0,0,0,0,0,0,0,0,0,0,0,0,0,0,0,0,0,0,0,0,0,0,0,0,0,0,0,0,0,0,0,0,0,0,0,0,0,0,0,0,0,0,0,0,0,0,0,0,0,0,0,0,0,0],"id":2,"left_children":[1,3,5,7,9,11,-1,13,15,17,19,21,23,25,27,29,31,33,35,-1,-1,37,-1,39,-1,41,43,-1,45,47,-1,49,-1,51,53,55,-1,-1,57,59,-1,-1,-1,-1,-1,-1,-1,-1,-1,-1,-1,-1,-1,-1,-1,-1,-1,-1,-1,-1,-1],"loss_changes":[2.0273828E4,1.4877173E4,1.6648242E2,1.1645571E4,6.192033E3,1.4527393E2,0E0,5.496035E2,7.118505E3,4.3866367E3,6.0480957E0,9.197998E0,6.8816895E1,2.1340933E3,7.080078E-1,3.4068872E3,7.292505E1,7.450781E2,9.6698E-1,0E0,0E0,2.100586E0,0E0,5.1535156E1,0E0,3.747233E2,1.0463208E2,0E0,4.9555664E0,2.3531553E3,0E0,1.5114746E0,0E0,3.2557617E2,5.1200203E1,1.456665E0,0E0,0E0,3.7722664E0,1.4907593E2,0E0,0E0,0E0,0E0,0E0,0E0,0E0,0E0,0E0,0E0,0E0,0E0,0E0,0E0,0E0,0E0,0E0,0E0,0E0,0E0,0E0],"parents":[2147483647,0,0,1,1,2,2,3,3,4,4,5,5,7,7,8,8,9,9,10,10,11,11,12,12,13,13,14,14,15,15,16,16,17,17,18,18,21,21,23,23,25,25,26,26,28,28,29,29,31,31,33,33,34,34,35,35,38,38,39,39],"right_children":[2,4,6,8,10,12,-1,14,16,18,20,22,24,26,28,30,32,34,36,-1,-1,38,-1,40,-1,42,44,-1,46,48,-1,50,-1,52,54,56,-1,-1,58,60,-1,-1,-1,-1,-1,-1,-1,-1,-1,-1,-1,-1,-1,-1,-1,-1,-1,-1,-1,-1,-1],"split_conditions":[6.8894244E2,8.192E3,2E0,1.05918884E-1,3.6E1,1.024E3,-1.6818537E-1,2.85E2,8E0,6.5535E4,6.8E1,6.22E2,1.3003516E3,1E0,1.025E3,1.1678701E6,3.9096E4,2.53E2,2E0,-4.6210404E-2,-1.680458E-1,1E0,-4.9035598E-2,6.5535E4,1.3108824E-1,1E0,6.2586E4,-1.4855574E-1,1E0,2.85E2,-1.7012207E-1,2.46E2,9.244421E-2,2E0,3E0,1.692772E-5,-5.292038E-2,-1.6633777E-1,1E0,8.192E3,-1.4524013E-1,7.8147076E-2,-1.2187896E-1,-1.6918181E-1,1.083292E-1,-1.4662383E-1,-1.3406098E-1,1.5231812E-1,-1.6709118E-1,-8.573754E-2,-1.6884372E-1,1.6517249E-1,-1.3354228E-1,-1.5798616E-1,-2.1730483E-2,-1.162673E-1,-1.5813206E-1,-1.5659195E-1,-7.6989464E-2,-1.2653913E-1,-4.5720484E-2],"split_indices":[5,22,16,0,31,22,0,22,24,22,0,32,11,18,22,3,23,23,9,0,0,15,0,22,0,9,23,0,16,22,0,0,0,16,9,0,0,0,17,22,0,0,0,0,0,0,0,0,0,0,0,0,0,0,0,0,0,0,0,0,0],"split_type":[0,0,0,0,0,0,0,0,0,0,0,0,0,0,0,0,0,0,0,0,0,0,0,0,0,0,0,0,0,0,0,0,0,0,0,0,0,0,0,0,0,0,0,0,0,0,0,0,0,0,0,0,0,0,0,0,0,0,0,0,0],"sum_hessian":[3.1037568E4,2.4039988E4,6.9975806E3,1.2706387E4,1.1333601E4,4.1063296E3,2.891251E3,6.351154E3,6.3552334E3,1.0661387E4,6.722139E2,1.2815502E3,2.824779E3,1.9313278E3,4.419826E3,5.254214E3,1.1010195E3,1.0062889E4,5.984977E2,5.237235E0,6.669767E2,1.2734471E3,8.103099E0,2.815029E3,9.750075E0,7.557877E2,1.1755399E3,2.1049404E3,2.3148855E3,4.863255E3,3.9095883E2,1.0908398E3,1.0179698E1,9.951691E3,1.1119737E2,5.933085E2,5.1892266E0,1.2388838E3,3.4563347E1,1.9425024E3,8.725267E2,6.472664E2,1.0852135E2,1.1624711E3,1.3068904E1,1.678404E3,6.3648145E2,4.621318E3,2.4193713E2,5.8251076E0,1.0850148E3,9.915803E3,3.5888706E1,5.9478622E1,5.1718754E1,5.7620746E2,1.7101011E1,2.0557161E1,1.4006187E1,1.6760989E3,2.6640356E2],"tree_param":{"num_deleted":"0","num_feature":"33","num_nodes":"61","size_leaf_vector":"1"}},{"base_weights":[-1.0011673E-3,4.0520614E-1,-1.3947865E0,-2.9255462E-1,1.1871885E0,-1.573069E0,-1.2605426E0,-9.9332994E-1,1.2686131E0,1.360188E0,-1.5660806E0,-1.5765917E-1,-1.2272105E0,-1.139514E0,-1.5481322E0,-1.2518092E0,1.4289625E0,1.5768594E0,-1.572596E-1,1.5064495E0,-1.0872488E0,-1.57481E-1,-6.084166E-2,9.855858E-3,-1.5680128E-1,-1.0534348E0,-1.3386159E-1,-1.5763292E-1,1.4867026E-1,-1.1109102E0,-1.5645517E0,1.5674878E0,-1.6359107E-1,-1.5536927E-1,1.5838392E0,1.5334412E0,-8.81344E-1,-1.074746E-1,-1.3973804E-1,-1.1839179E0,-6.853811E-2,2.2545276E-2,-1.3717215E-1,-1.5699479E-1,-0E0,6.28117E-2,1.5817636E-1,5.9491456E-2,1.5853284E-1,1.5449274E-1,-1.2955007E-1,-1.2003558E-1,7.769471E-2,-1.0588046E-1,-1.5947828E-1,6.61342E-3,-1.6370943E-1],"categories":[],"categories_nodes":[],"categories_segments":[],"categories_sizes":[],"default_left":[0,0,0,0,0,0,0,0,0,0,0,0,0,0,0,0,0,0,0,0,0,0,0,0,0,0,0,0,0,0,0,0,0,0,0,0,0,0,0,0,0,0,0,0,0,0,0,0,0,0,0,0,0,0,0,0,0],"id":3,"left_children":[1,3,5,7,9,11,13,15,17,19,21,-1,23,25,27,29,31,33,-1,35,37,-1,-1,-1,-1,39,-1,-1,-1,41,43,45,-1,-1,47,49,51,-1,-1,53,55,-1,-1,-1,-1,-1,-1,-1,-1,-1,-1,-1,-1,-1,-1,-1,-1],"loss_changes":[1.6961111E4,1.2657583E4,1.5953906E2,1.3413352E4,5.212338E3,1.3173828E0,1.3239014E2,5.299872E3,3.3291694E3,3.6860469E3,4.2332764E0,0E0,1.567934E1,4.500464E1,9.997949E1,3.349414E2,3.4913806E2,7.735254E1,0E0,6.2739844E2,5.036011E-1,0E0,0E0,0E0,0E0,2.446792E2,0E0,0E0,0E0,1.8390532E3,2.0065918E1,9.2664795E0,0E0,0E0,3.8759766E0,3.1410938E2,5.8721016E1,0E0,0E0,8.4532715E1,4.7598484E1,0E0,0E0,0E0,0E0,0E0,0E0,0E0,0E0,0E0,0E0,0E0,0E0,0E0,0E0,0E0,0E0],"parents":[2147483647,0,0,1,1,2,2,3,3,4,4,5,5,6,6,7,7,8,8,9,9,10,10,12,12,13,13,14,14,15,15,16,16,17,17,19,19,20,20,25,25,29,29,30,30,31,31,34,34,35,35,36,36,39,39,40,40],"right_children":[2,4,6,8,10,12,14,16,18,20,22,-1,24,26,28,30,32,34,-1,36,38,-1,-1,-1,-1,40,-1,-1,-1,42,44,46,-1,-1,48,50,52,-1,-1,54,56,-1,-1,-1,-1,-1,-1,-1,-1,-1,-1,-1,-1,-1,-1,-1,-1],"split_conditions":[6.8894244E2,8.192E3,6.769852E-1,2.68941E4,3.6E1,6E0,3.2E1,6.2586E4,6.4E1,6.5535E4,7E0,-1.5765917E-1,2E1,6.5535E4,1.3003516E3,1E0,1E0,2.56E2,-1.572596E-1,2.59E2,5.3290796E-2,-1.57481E-1,-6.084166E-2,9.855858E-3,-1.5680128E-1,1.2E3,-1.3386159E-1,-1.5763292E-1,1.4867026E-1,2.85E2,3.9096E4,6.8784623E0,-1.6359107E-1,-1.5536927E-1,2E1,2E0,1.6165808E1,-1.074746E-1,-1.3973804E-1,1.025E3,3E1,2.2545276E-2,-1.3717215E-1,-1.5699479E-1,-0E0,6.28117E-2,1.5817636E-1,5.9491456E-2,1.5853284E-1,1.5449274E-1,-1.2955007E-1,-1.2003558E-1,7.769471E-2,-1.0588046E-1,-1.5947828E-1,6.61342E-3,-1.6370943E-1],"split_indices":[5,22,8,2,31,32,30,23,31,22,18,0,31,22,11,9,16,22,0,23,6,0,0,0,0,22,0,0,0,22,23,5,0,0,31,16,11,0,0,22,23,0,0,0,0,0,0,0,0,0,0,0,0,0,0,0,0],"split_type":[0,0,0,0,0,0,0,0,0,0,0,0,0,0,0,0,0,0,0,0,0,0,0,0,0,0,0,0,0,0,0,0,0,0,0,0,0,0,0,0,0,0,0,0,0,0,0,0,0,0,0,0,0,0,0,0,0],"sum_hessian":[2.9955682E4,2.3196027E4,6.759655E3,1.2258394E4,1.0937634E4,2.8986443E3,3.8610103E3,8.460901E3,3.7974927E3,1.0291517E4,6.4611725E2,2.8656094E3,3.303497E1,2.721154E3,1.1398562E3,7.645577E3,8.153238E2,3.4262544E3,3.712382E2,9.711568E3,5.799482E2,6.395388E2,6.5784416E0,6.840773E0,2.6194197E1,1.9045421E3,8.16612E2,1.129872E3,9.984216E0,5.2742534E3,2.371324E3,7.805652E2,3.47586E1,7.0973673E0,3.419157E3,9.60341E3,1.0815783E2,5.620763E2,1.7871893E1,1.6814706E3,2.2307156E2,8.6122144E2,4.413032E3,2.363185E3,8.138721E0,1.246333E1,7.6810187E2,5.844361E0,3.4133127E3,9.565063E3,3.83471E1,9.099016E1,1.7167673E1,1.291894E3,3.8957657E2,2.0625694E2,1.681462E1],"tree_param":{"num_deleted":"0","num_feature":"33","num_nodes":"57","size_leaf_vector":"1"}},{"base_weights":[3.0753117E-3,3.8350284E-1,-1.3099055E0,-2.7520183E-1,1.1250212E0,-1.1849492E0,-1.4915746E-1,-9.268192E-1,1.1982338E0,1.2875768E0,-1.4805509E0,-1.4552265E0,-1.0637468E0,-1.1680045E0,1.3521277E0,1.4925991E0,-1.4890377E-1,1.4272362E0,-1.0034058E0,-2.6258348E-2,-1.4907634E-1,-1.4630277E-1,-2.3437515E-2,-1.0723982E0,1.229321E-1,-1.0342005E0,-1.4707822E0,1.4692274E0,-1.640818E-1,-1.4442219E-1,1.4983059E0,1.4513494E0,-7.5284326E-1,-9.8923504E-2,-1.362564E-1,-9.867871E-1,-1.2644924E0,1.9889763E-2,-1.2845765E-1,-1.4756803E-1,-8.671388E-3,1.4895535E-1,-1.6286602E-2,7.192199E-2,1.499493E-1,1.4617686E-1,-1.1719292E-1,-4.835923E-3,-1.4419086E-1,-1.08800374E-1,-4.5178857E-2,-1.2433112E-1,-1.4377259E-1],"categories":[],"categories_nodes":[],"categories_segments":[],"categories_sizes":[],"default_left":[0,0,0,0,0,0,0,0,0,0,0,0,0,0,0,0,0,0,0,0,0,0,0,0,0,0,0,0,0,0,0,0,0,0,0,0,0,0,0,0,0,0,0,0,0,0,0,0,0,0,0,0,0],"id":4,"left_children":[1,3,5,7,9,11,-1,13,15,17,19,21,23,25,27,29,-1,31,33,-1,-1,-1,-1,35,-1,37,39,41,-1,-1,43,45,47,-1,-1,49,51,-1,-1,-1,-1,-1,-1,-1,-1,-1,-1,-1,-1,-1,-1,-1,-1],"loss_changes":[1.4393446E4,1.0913482E4,1.4491992E2,1.1361922E4,4.4537773E3,1.24012695E2,0E0,4.5114453E3,2.8727007E3,3.1672031E3,7.116211E0,1.0783691E1,5.3983887E1,2.9884766E2,2.7775098E2,5.6990723E1,0E0,4.9142773E2,1.3131104E0,0E0,0E0,0E0,0E0,4.2043945E1,0E0,1.5902905E3,1.5115723E1,2.5476318E1,0E0,0E0,1.7197266E0,2.5386914E2,4.9605453E1,0E0,0E0,9.873767E1,9.230957E-1,0E0,0E0,0E0,0E0,0E0,0E0,0E0,0E0,0E0,0E0,0E0,0E0,0E0,0E0,0E0,0E0],"parents":[2147483647,0,0,1,1,2,2,3,3,4,4,5,5,7,7,8,8,9,9,10,10,11,11,12,12,13,13,14,14,15,15,17,17,18,18,23,23,25,25,26,26,27,27,30,30,31,31,32,32,35,35,36,36],"right_children":[2,4,6,8,10,12,-1,14,16,18,20,22,24,26,28,30,-1,32,34,-1,-1,-1,-1,36,-1,38,40,42,-1,-1,44,46,48,-1,-1,50,52,-1,-1,-1,-1,-1,-1,-1,-1,-1,-1,-1,-1,-1,-1,-1,-1],"split_conditions":[6.8894244E2,8.192E3,2E0,2.68941E4,3.6E1,1.024E3,-1.4915746E-1,6.2586E4,8E0,6.5535E4,1.09E2,4.7845456E2,1.9335E3,1E0,6.5392E4,2.56E2,-1.4890377E-1,2.55E2,7.020579E-2,-2.6258348E-2,-1.4907634E-1,-1.4630277E-1,-2.3437515E-2,6.5535E4,1.229321E-1,2.85E2,3.9096E4,7.8571427E-1,-1.640818E-1,-1.4442219E-1,2E1,2E0,1.501E0,-9.8923504E-2,-1.362564E-1,1.2E3,1.426634E4,1.9889763E-2,-1.2845765E-1,-1.4756803E-1,-8.671388E-3,1.4895535E-1,-1.6286602E-2,7.192199E-2,1.499493E-1,1.4617686E-1,-1.1719292E-1,-4.835923E-3,-1.4419086E-1,-1.08800374E-1,-4.5178857E-2,-1.2433112E-1,-1.4377259E-1],"split_indices":[5,22,16,2,31,22,0,23,24,22,0,25,25,9,23,22,0,23,6,0,0,0,0,22,0,22,23,8,0,0,31,16,2,0,0,22,6,0,0,0,0,0,0,0,0,0,0,0,0,0,0,0,0],"split_type":[0,0,0,0,0,0,0,0,0,0,0,0,0,0,0,0,0,0,0,0,0,0,0,0,0,0,0,0,0,0,0,0,0,0,0,0,0,0,0,0,0,0,0,0,0,0,0,0,0,0,0,0,0],"sum_hessian":[2.8814232E4,2.2341666E4,6.4725664E3,1.1831773E4,1.0509893E4,3.839642E3,2.632924E3,8.204032E3,3.6277412E3,9.893222E3,6.166709E2,1.1850927E3,2.6545493E3,7.419359E3,7.846737E2,3.270023E3,3.577184E2,9.325175E3,5.6804663E2,5.4312754E0,6.112396E2,1.1772897E3,7.8030586E0,2.6451455E3,9.403799E0,5.148758E3,2.2706013E3,7.556512E2,2.9022526E1,5.819022E0,3.2642039E3,9.223536E3,1.0163816E2,5.503645E2,1.7682127E1,1.8343047E3,8.108409E2,8.6895795E2,4.2798E3,2.2624563E3,8.145045E0,7.4650287E2,9.148307E0,6.017183E0,3.2581865E3,9.187526E3,3.601038E1,5.085773E1,5.078043E1,1.5414553E3,2.928494E2,7.303012E2,8.053967E1],"tree_param":{"num_deleted":"0","num_feature":"33","num_nodes":"53","size_leaf_vector":"1"}},{"base_weights":[1.2601071E-4,-5.4781765E-1,7.407174E-1,-9.8565626E-1,7.8787893E-1,1.1321572E0,-1.1844008E0,-1.133728E0,9.1473895E-1,-1.4498058E-1,1.4007417E0,1.2930617E0,-1.4213511E0,-1.0761064E0,-1.4141403E0,-9.345487E-1,-1.2206956E0,1.3896168E0,-1.4505753E-1,1.4272041E0,-1.3766365E-1,1.3764975E0,-5.332072E-1,-1.4290236E-1,-6.2176175E-2,-9.208366E-1,-1.1837988E-1,-1.4223455E-1,-3.293804E-2,8.913758E-2,-1.3843569E0,-1.1569731E0,-1.4228393E-1,1.4129566E0,-1.3191329E-1,3.2249037E-2,1.4297885E-1,1.3922241E0,-1.7929634E0,-1.6076165E0,-1.521511E-1,-1.3698055E-1,-9.048169E-2,6.0547452E-2,-8.414661E-2,-1.3882855E-1,1.6634565E-2,-1.2123549E-1,-1.00371026E-1,1.4254367E-1,7.780386E-2,6.3460344E-3,-3.3873837E-2,1.4052778E-1,-1.383456E-1,-2.4150307E-1,-1.4212301E-1,-1.6823414E-1,-9.6149435E-3,4.177352E-3,-9.017513E-2],"categories":[],"categories_nodes":[],"categories_segments":[],"categories_sizes":[],"default_left":[0,0,0,0,0,0,0,0,0,0,0,0,0,0,0,0,0,0,0,0,0,0,0,0,0,0,0,0,0,0,0,0,0,0,0,0,0,0,0,0,0,0,0,0,0,0,0,0,0,0,0,0,0,0,0,0,0,0,0,0,0],"id":5,"left_children":[1,3,5,7,9,11,13,15,17,-1,19,21,23,25,27,29,31,33,-1,35,-1,37,39,-1,-1,41,-1,-1,-1,43,45,47,-1,49,51,-1,-1,53,55,57,59,-1,-1,-1,-1,-1,-1,-1,-1,-1,-1,-1,-1,-1,-1,-1,-1,-1,-1,-1,-1],"loss_changes":[1.1132796E4,9.222071E3,8.79265E3,3.342792E3,5.3410415E3,3.9854277E3,4.72854E1,1.8949414E2,9.667823E2,0E0,2.2662354E2,1.3906924E3,2.4350586E0,2.1182129E1,4.947632E0,1.5442644E3,9.683594E1,2.5736206E1,0E0,8.009277E0,0E0,4.3726172E2,1.6300917E2,0E0,0E0,2.5286865E0,0E0,0E0,0E0,4.9275522E2,1.4546387E1,4.807959E1,0E0,4.258301E0,5.2038586E-1,0E0,0E0,3.164746E2,6.2374725E0,1.1444672E1,4.312963E1,0E0,0E0,0E0,0E0,0E0,0E0,0E0,0E0,0E0,0E0,0E0,0E0,0E0,0E0,0E0,0E0,0E0,0E0,0E0,0E0],"parents":[2147483647,0,0,1,1,2,2,3,3,4,4,5,5,6,6,7,7,8,8,10,10,11,11,12,12,13,13,14,14,15,15,16,16,17,17,19,19,21,21,22,22,25,25,29,29,30,30,31,31,33,33,34,34,37,37,38,38,39,39,40,40],"right_children":[2,4,6,8,10,12,14,16,18,-1,20,22,24,26,28,30,32,34,-1,36,-1,38,40,-1,-1,42,-1,-1,-1,44,46,48,-1,50,52,-1,-1,54,56,58,60,-1,-1,-1,-1,-1,-1,-1,-1,-1,-1,-1,-1,-1,-1,-1,-1,-1,-1,-1,-1],"split_conditions":[8.192E3,1.4004353E5,6.5535E4,6.2586E4,2.56E2,3.6E1,2E0,2.85E2,6.5392E4,-1.4498058E-1,8E0,1E0,7E0,4.005919E-2,2E0,2E1,2E0,7.185629E-1,-1.4505753E-1,2E1,-1.3766365E-1,8.189808E5,6.769852E-1,-1.4290236E-1,-6.2176175E-2,1E0,-1.1837988E-1,-1.4223455E-1,-3.293804E-2,1E0,8.6E2,6.62712E2,-1.4228393E-1,6.2617E4,7E0,3.2249037E-2,1.4297885E-1,3E0,2.29E2,1.8E1,1.3513514E4,-1.3698055E-1,-9.048169E-2,6.0547452E-2,-8.414661E-2,-1.3882855E-1,1.6634565E-2,-1.2123549E-1,-1.00371026E-1,1.4254367E-1,7.780386E-2,6.3460344E-3,-3.3873837E-2,1.4052778E-1,-1.383456E-1,-2.4150307E-1,-1.4212301E-1,-1.6823414E-1,-9.6149435E-3,4.177352E-3,-9.017513E-2],"split_indices":[22,1,22,23,22,31,16,22,23,0,24,18,18,7,18,30,16,8,0,31,0,1,8,0,0,16,0,0,0,18,32,7,0,23,18,0,0,16,23,12,7,0,0,0,0,0,0,0,0,0,0,0,0,0,0,0,0,0,0,0,0],"split_type":[0,0,0,0,0,0,0,0,0,0,0,0,0,0,0,0,0,0,0,0,0,0,0,0,0,0,0,0,0,0,0,0,0,0,0,0,0,0,0,0,0,0,0,0,0,0,0,0,0,0,0,0,0,0,0,0,0,0,0,0,0],"sum_hessian":[2.7431982E4,1.5766729E4,1.1665254E4,1.1874598E4,3.8921316E3,9.694506E3,1.9707478E3,1.1016675E4,8.5792285E2,8.3647296E2,3.0556587E3,9.120338E3,5.7416833E2,1.3435469E3,6.2720087E2,3.3521755E3,7.664499E3,7.1485754E2,1.4306528E2,3.0273367E3,2.8321835E1,8.722154E3,3.9818338E2,5.678076E2,6.3606596E0,5.5452216E2,7.890248E2,6.22092E2,5.1088724E0,1.02348315E3,2.3286924E3,5.8329683E3,1.8315308E3,7.041925E2,1.0665007E1,7.4493113E0,3.0198875E3,8.679679E3,4.2475513E1,1.03337135E2,2.9484622E2,1.5977873E1,5.3854425E2,6.585497E2,3.6493347E2,2.3229766E3,5.7157235E0,4.2791343E3,1.553834E3,6.89242E2,1.495056E1,5.59215E0,5.0728564E0,8.639577E3,4.0101482E1,1.3731393E1,2.8744122E1,9.8298195E1,5.038937E0,2.3489008E2,5.9956154E1],"tree_param":{"num_deleted":"0","num_feature":"33","num_nodes":"61","size_leaf_vector":"1"}},{"base_weights":[-8.107585E-4,3.427945E-1,-1.1699916E0,-2.4483074E-1,1.01547E0,-1.3632725E-1,-1.0309371E0,-9.675005E-1,5.1331806E-1,1.1636553E0,-1.3569291E0,-9.0762407E-1,-1.344379E0,-6.2167966E-1,-1.1261717E0,1.131608E0,-1.3661114E0,1.2983694E0,-8.762699E-1,-2.8838798E-2,-1.3662189E-1,-8.197756E-1,-1.1187915E0,-1.3678002E-1,1.1816742E-1,1.7925969E-1,-1.2695448E0,-1.1594653E0,-1.0958053E0,1.2689036E0,-1.3923323E-1,-5.6492877E-1,-1.3791766E0,1.3238133E0,-6.8683547E-1,-8.659666E-2,-1.22822754E-1,-9.434041E-1,3.4236006E-2,-1.1011245E0,-1.26759E-1,-2.3018446E-2,1.843971E-2,-1.2968694E-1,6.860809E-2,-1.0465562E-1,-1.1734374E-1,-9.9505216E-2,-1.1436657E-1,1.3214788E-1,-1.3671993E-1,-1.20343804E-1,8.9552216E-2,-1.3824598E-1,-7.479102E-2,1.3304715E-1,-2.1693988E-1,-9.8652065E-2,5.741951E-2,-8.069075E-2,-1.3918856E-1,1.499667E-2,-1.4662685E-1,-1.1227955E-1,-9.5583215E-2],"categories":[],"categories_nodes":[],"categories_segments":[],"categories_sizes":[],"default_left":[0,0,0,0,0,0,0,0,0,0,0,0,0,0,0,0,0,0,0,0,0,0,0,0,0,0,0,0,0,0,0,0,0,0,0,0,0,0,0,0,0,0,0,0,0,0,0,0,0,0,0,0,0,0,0,0,0,0,0,0,0,0,0,0,0],"id":6,"left_children":[1,3,5,7,9,-1,11,13,15,17,19,21,23,25,27,29,31,33,35,-1,-1,37,39,-1,-1,41,43,45,47,49,-1,51,53,55,57,-1,-1,59,61,63,-1,-1,-1,-1,-1,-1,-1,-1,-1,-1,-1,-1,-1,-1,-1,-1,-1,-1,-1,-1,-1,-1,-1,-1,-1],"loss_changes":[1.0462874E4,7.9566953E3,1.5734424E2,5.887134E3,3.301001E3,0E0,1.3170044E2,3.0098486E2,6.095128E3,2.4288516E3,4.921753E0,4.4811035E1,5.9040283E1,8.9940485E2,2.3144531E0,1.369292E3,1.26188965E1,4.1957617E2,7.1343994E-1,0E0,0E0,1.8512976E2,2.7111816E-1,0E0,0E0,1.6693192E0,5.2145264E1,1.3571777E0,8.25E0,5.206094E2,0E0,2.2231777E1,1.3991699E0,1.9311816E2,4.0470257E1,0E0,0E0,9.236902E1,3.871765E1,7.8308105E-1,0E0,0E0,0E0,0E0,0E0,0E0,0E0,0E0,0E0,0E0,0E0,0E0,0E0,0E0,0E0,0E0,0E0,0E0,0E0,0E0,0E0,0E0,0E0,0E0,0E0],"parents":[2147483647,0,0,1,1,2,2,3,3,4,4,6,6,7,7,8,8,9,9,10,10,11,11,12,12,13,13,14,14,15,15,16,16,17,17,18,18,21,21,22,22,25,25,26,26,27,27,28,28,29,29,31,31,32,32,33,33,34,34,37,37,38,38,39,39],"right_children":[2,4,6,8,10,-1,12,14,16,18,20,22,24,26,28,30,32,34,36,-1,-1,38,40,-1,-1,42,44,46,48,50,-1,52,54,56,58,-1,-1,60,62,64,-1,-1,-1,-1,-1,-1,-1,-1,-1,-1,-1,-1,-1,-1,-1,-1,-1,-1,-1,-1,-1,-1,-1,-1,-1],"split_conditions":[6.8894244E2,8.192E3,6.769852E-1,1.05918884E-1,3.6E1,-1.3632725E-1,3.2E1,2.54E2,3.125E-2,6.5535E4,1.09E2,6.5535E4,1.3003516E3,1E0,1.025E3,1E0,9E-1,2.55E2,2.640493E1,-2.8838798E-2,-1.3662189E-1,1.2E3,2.8276207E4,-1.3678002E-1,1.1816742E-1,1E0,6.2586E4,1E0,1.028E3,8E0,-1.3923323E-1,1.2769809E2,1.024E3,2.015907E6,1.6165808E1,-8.659666E-2,-1.22822754E-1,1.025E3,3E1,1.2336188E4,-1.26759E-1,-2.3018446E-2,1.843971E-2,-1.2968694E-1,6.860809E-2,-1.0465562E-1,-1.1734374E-1,-9.9505216E-2,-1.1436657E-1,1.3214788E-1,-1.3671993E-1,-1.20343804E-1,8.9552216E-2,-1.3824598E-1,-7.479102E-2,1.3304715E-1,-2.1693988E-1,-9.8652065E-2,5.741951E-2,-8.069075E-2,-1.3918856E-1,1.499667E-2,-1.4662685E-1,-1.1227955E-1,-9.5583215E-2],"split_indices":[5,22,8,0,31,0,30,22,8,22,0,22,11,9,22,16,8,23,5,0,0,22,5,0,0,17,23,16,22,24,0,11,22,0,11,0,0,22,23,7,0,0,0,0,0,0,0,0,0,0,0,0,0,0,0,0,0,0,0,0,0,0,0,0,0],"split_type":[0,0,0,0,0,0,0,0,0,0,0,0,0,0,0,0,0,0,0,0,0,0,0,0,0,0,0,0,0,0,0,0,0,0,0,0,0,0,0,0,0,0,0,0,0,0,0,0,0,0,0,0,0,0,0,0,0,0,0,0,0,0,0,0,0],"sum_hessian":[2.6041904E4,2.012738E4,5.914524E3,1.074309E4,9.384291E3,2.470748E3,3.4437756E3,5.5001685E3,5.2429214E3,8.833107E3,5.511834E2,2.4744878E3,9.692879E2,1.7316403E3,3.768528E3,3.9454187E3,1.2975027E3,8.286303E3,5.4680457E2,5.119601E0,5.4606384E2,1.7512853E3,7.232024E2,9.608769E2,8.411024E0,7.745958E2,9.5704443E2,1.7783164E3,1.9902117E3,3.74238E3,2.0303865E2,2.1652035E1,1.2758506E3,8.181822E3,1.0448103E2,5.348907E2,1.1913915E1,1.5298356E3,2.2144981E2,6.545583E2,6.864412E1,8.8146E0,7.6578125E2,9.4423926E2,1.2805201E1,2.0497395E2,1.5733424E3,6.4863086E2,1.3415807E3,3.6697268E3,7.265325E1,1.5235519E1,6.416516E0,1.2679077E3,7.94295E0,8.166904E3,1.4918381E1,8.4658775E1,1.9822258E1,1.1751863E3,3.546492E2,2.0649036E2,1.4959458E1,5.6314655E2,9.141173E1],"tree_param":{"num_deleted":"0","num_feature":"33","num_nodes":"65","size_leaf_vector":"1"}},{"base_weights":[9.2140055E-4,3.3076105E-1,-1.1179026E0,-2.2852845E-1,9.783344E-1,-9.865599E-1,-1.3199225E-1,-7.833165E-1,1.0592177E0,1.1194018E0,-1.308833E0,-1.2862839E0,-8.603626E-1,-9.860633E-1,1.169935E0,1.3206905E0,-1.3160905E-1,1.2492388E0,-7.643153E-1,-2.5918186E-2,-1.3189094E-1,-1.2960833E0,5.3088376E-3,-7.7890235E-1,-1.0515532E0,-8.591253E-1,-1.292859E0,1.2791497E0,-1.40516E-1,-1.3516818E-1,1.3268563E0,1.2738515E0,-5.5613947E-1,-7.5369096E-1,-1.1661102E-1,-1.3032822E-1,-9.315399E-2,-8.78157E-1,-2.3400202E-1,-1.03377774E-1,-1.2092563E-1,1.1170237E-2,-1.0791576E-1,-1.2998329E-1,-6.076317E-2,1.9946253E-2,1.3104743E-1,5.19102E-2,1.3285041E-1,1.2896046E-1,-1.5709274E-1,-1.6098456E-1,2.5985373E-2,-7.5768635E-2,-2.7638216E-2,-7.386445E-2,-1.2661435E-1,-1.1664929E-1,1.09631885E-2],"categories":[],"categories_nodes":[],"categories_segments":[],"categories_sizes":[],"default_left":[0,0,0,0,0,0,0,0,0,0,0,0,0,0,0,0,0,0,0,0,0,0,0,0,0,0,0,0,0,0,0,0,0,0,0,0,0,0,0,0,0,0,0,0,0,0,0,0,0,0,0,0,0,0,0,0,0,0,0],"id":7,"left_children":[1,3,5,7,9,11,-1,13,15,17,19,21,23,25,27,29,-1,31,33,-1,-1,35,-1,37,39,41,43,45,-1,-1,47,49,51,53,-1,-1,-1,55,57,-1,-1,-1,-1,-1,-1,-1,-1,-1,-1,-1,-1,-1,-1,-1,-1,-1,-1,-1,-1],"loss_changes":[9.083698E3,6.8856035E3,1.4717383E2,7.2889453E3,2.844037E3,1.2730347E2,0E0,2.8248765E3,1.9097017E3,2.0307471E3,4.918213E0,1.3387939E1,3.631848E1,2.5026904E2,1.9047876E2,4.739795E1,0E0,3.4579004E2,1.2159729E0,0E0,0E0,1.1818848E0,0E0,9.079059E1,5.234375E-1,9.770532E2,8.043945E0,2.1375244E1,0E0,0E0,2.802246E0,3.4528418E2,9.0893135E1,6.88324E-1,0E0,0E0,0E0,7.596948E1,8.3894E1,0E0,0E0,0E0,0E0,0E0,0E0,0E0,0E0,0E0,0E0,0E0,0E0,0E0,0E0,0E0,0E0,0E0,0E0,0E0,0E0],"parents":[2147483647,0,0,1,1,2,2,3,3,4,4,5,5,7,7,8,8,9,9,10,10,11,11,12,12,13,13,14,14,15,15,17,17,18,18,21,21,23,23,24,24,25,25,26,26,27,27,30,30,31,31,32,32,33,33,37,37,38,38],"right_children":[2,4,6,8,10,12,-1,14,16,18,20,22,24,26,28,30,-1,32,34,-1,-1,36,-1,38,40,42,44,46,-1,-1,48,50,52,54,-1,-1,-1,56,58,-1,-1,-1,-1,-1,-1,-1,-1,-1,-1,-1,-1,-1,-1,-1,-1,-1,-1,-1,-1],"split_conditions":[6.8894244E2,8.192E3,2E0,2.3408062E4,3.6E1,1.024E3,-1.3199225E-1,3.9096E4,8E0,6.5535E4,1.55E2,3.95E2,6.5535E4,2E1,6.5392E4,2.56E2,-1.3160905E-1,1E0,2.640493E1,-2.5918186E-2,-1.3189094E-1,2E0,5.3088376E-3,8.192E3,1.426634E4,2.85E2,7.704E3,6.8784623E0,-1.40516E-1,-1.3516818E-1,2E1,2.015907E6,6E1,1.649404E-1,-1.1661102E-1,-1.3032822E-1,-9.315399E-2,1.025E3,1E0,-1.03377774E-1,-1.2092563E-1,1.1170237E-2,-1.0791576E-1,-1.2998329E-1,-6.076317E-2,1.9946253E-2,1.3104743E-1,5.19102E-2,1.3285041E-1,1.2896046E-1,-1.5709274E-1,-1.6098456E-1,2.5985373E-2,-7.5768635E-2,-2.7638216E-2,-7.386445E-2,-1.2661435E-1,-1.1664929E-1,1.09631885E-2],"split_indices":[5,22,16,2,31,22,0,23,24,22,0,25,22,30,23,22,0,18,5,0,0,18,0,22,6,22,23,5,0,0,31,0,30,5,0,0,0,22,17,0,0,0,0,0,0,0,0,0,0,0,0,0,0,0,0,0,0,0,0],"split_type":[0,0,0,0,0,0,0,0,0,0,0,0,0,0,0,0,0,0,0,0,0,0,0,0,0,0,0,0,0,0,0,0,0,0,0,0,0,0,0,0,0,0,0,0,0,0,0,0,0,0,0,0,0,0,0,0,0,0,0],"sum_hessian":[2.4613107E4,1.9009674E4,5.6034336E3,1.0200395E4,8.809279E3,3.399582E3,2.2038516E3,7.129379E3,3.0710164E3,8.298029E3,5.1124966E2,1.00431274E3,2.3952693E3,6.4594375E3,6.6994104E2,2.7669211E3,3.0409528E2,7.763325E3,5.347048E2,5.2096453E0,5.0604E2,9.971243E2,7.1884437E0,1.6835564E3,7.1171295E2,4.571915E3,1.8875228E3,6.432037E2,2.6737368E1,5.829452E0,2.7610916E3,7.6592563E3,1.0406866E2,5.2397437E2,1.0730384E1,9.7502075E2,2.210359E1,1.4234729E3,2.600835E2,6.4697833E2,6.473464E1,8.4474866E2,3.7271663E3,1.8674739E3,2.0048923E1,1.8432669E1,6.2477106E2,6.388109E0,2.7547034E3,7.6176553E3,4.1601055E1,4.5047604E1,5.9021053E1,5.188345E2,5.139886E0,1.0493193E3,3.7415356E2,6.946863E1,1.9061487E2],"tree_param":{"num_deleted":"0","num_feature":"33","num_nodes":"59","size_leaf_vector":"1"}},{"base_weights":[2.2288868E-3,3.170755E-1,-1.0654591E0,-2.1954335E-1,9.4107676E-1,-1.2732339E0,-9.224917E-1,-7.42313E-1,1.0188016E0,1.0763131E0,-1.2729541E0,-1.2768884E0,-8.1257385E-1,-7.991397E-1,-1.252644E0,-9.3639284E-1,1.1356874E0,1.2781543E0,-1.276432E-1,1.2067598E0,-7.549702E-1,-1.2785925E-1,-6.462783E-2,-1.2825294E-1,-1.0399011E0,-1.944551E-4,-1.1032011E-1,-7.1878475E-1,-9.966287E-1,-1.2799206E-1,1.2720299E-1,-8.067762E-1,-1.2549899E0,1.2367237E0,-1.337617E-1,-1.2846339E-1,1.2855333E0,1.2318702E0,-5.295993E-1,-7.448126E-1,-1.1252581E-1,-5.810865E-2,-1.285572E-1,-8.3728766E-1,5.5967502E-2,-9.7629356E-1,-1.17491595E-1,1.2969739E-2,-1.0076765E-1,-1.2613939E-1,-9.729101E-2,1.7049411E-2,1.2702344E-1,4.4913176E-2,1.2872224E-1,1.2467494E-1,-1.4719824E-1,-1.4334603E-1,2.2366745E-2,-7.487546E-2,-2.9522693E-2,1.0909741E-1,-1.1800126E-1,-7.076687E-2,-1.2909834E-1,1.558985E-2,-1.3400684E-1,-1.01304054E-1,-9.0042435E-2],"categories":[],"categories_nodes":[],"categories_segments":[],"categories_sizes":[],"default_left":[0,0,0,0,0,0,0,0,0,0,0,0,0,0,0,0,0,0,0,0,0,0,0,0,0,0,0,0,0,0,0,0,0,0,0,0,0,0,0,0,0,0,0,0,0,0,0,0,0,0,0,0,0,0,0,0,0,0,0,0,0,0,0,0,0,0,0,0,0],"id":8,"left_children":[1,3,5,7,9,11,13,15,17,19,21,23,25,27,29,31,33,35,-1,37,39,-1,-1,-1,41,-1,-1,43,45,-1,-1,47,49,51,-1,-1,53,55,57,59,-1,61,-1,63,65,67,-1,-1,-1,-1,-1,-1,-1,-1,-1,-1,-1,-1,-1,-1,-1,-1,-1,-1,-1,-1,-1,-1,-1],"loss_changes":[7.816966E3,6.0136826E3,1.5591211E2,6.2517207E3,2.4875513E3,2.3823242E0,1.2670923E2,2.476E3,1.7080776E3,1.8704824E3,6.715698E-1,1.2905273E0,4.583024E0,3.544641E1,6.0325806E1,2.5295166E2,1.6068024E2,5.0368652E1,0E0,3.1927148E2,9.343567E-1,0E0,0E0,0E0,1.3147625E1,0E0,0E0,1.4990265E2,1.027771E0,0E0,0E0,8.238928E2,1.7609863E0,2.1506104E1,0E0,0E0,2.878418E0,2.915703E2,7.178987E1,5.7888794E-1,0E0,1.7039684E1,0E0,8.2106995E1,3.0398603E1,5.64209E-1,0E0,0E0,0E0,0E0,0E0,0E0,0E0,0E0,0E0,0E0,0E0,0E0,0E0,0E0,0E0,0E0,0E0,0E0,0E0,0E0,0E0,0E0,0E0],"parents":[2147483647,0,0,1,1,2,2,3,3,4,4,5,5,6,6,7,7,8,8,9,9,10,10,11,11,12,12,13,13,14,14,15,15,16,16,17,17,19,19,20,20,24,24,27,27,28,28,31,31,32,32,33,33,36,36,37,37,38,38,39,39,41,41,43,43,44,44,45,45],"right_children":[2,4,6,8,10,12,14,16,18,20,22,24,26,28,30,32,34,36,-1,38,40,-1,-1,-1,42,-1,-1,44,46,-1,-1,48,50,52,-1,-1,54,56,58,60,-1,62,-1,64,66,68,-1,-1,-1,-1,-1,-1,-1,-1,-1,-1,-1,-1,-1,-1,-1,-1,-1,-1,-1,-1,-1,-1,-1],"split_conditions":[6.8894244E2,8.192E3,6.769852E-1,2.0214188E4,3.6E1,1E0,3.2E1,3.9096E4,6.4E1,6.5535E4,6.2586E4,2.1213202E0,7.7044526E3,6.5535E4,1.3003516E3,1E0,6.5392E4,2.56E2,-1.276432E-1,1E0,2.640493E1,-1.2785925E-1,-6.462783E-2,-1.2825294E-1,1.501E0,-1.944551E-4,-1.1032011E-1,1.2E3,2.8276207E4,-1.2799206E-1,1.2720299E-1,1.19E2,1.024E3,6.8784623E0,-1.337617E-1,-1.2846339E-1,2E1,8.189808E5,6E1,1.649404E-1,-1.1252581E-1,2.85E2,-1.285572E-1,1.025E3,3E1,2.1509252E4,-1.17491595E-1,1.2969739E-2,-1.0076765E-1,-1.2613939E-1,-9.729101E-2,1.7049411E-2,1.2702344E-1,4.4913176E-2,1.2872224E-1,1.2467494E-1,-1.4719824E-1,-1.4334603E-1,2.2366745E-2,-7.487546E-2,-2.9522693E-2,1.0909741E-1,-1.1800126E-1,-7.076687E-2,-1.2909834E-1,1.558985E-2,-1.3400684E-1,-1.01304054E-1,-9.0042435E-2],"split_indices":[5,22,8,2,31,15,30,23,31,22,23,1,5,22,11,9,23,22,0,18,5,0,0,0,2,0,0,22,5,0,0,22,22,5,0,0,31,1,30,5,0,22,0,22,23,5,0,0,0,0,0,0,0,0,0,0,0,0,0,0,0,0,0,0,0,0,0,0,0],"split_type":[0,0,0,0,0,0,0,0,0,0,0,0,0,0,0,0,0,0,0,0,0,0,0,0,0,0,0,0,0,0,0,0,0,0,0,0,0,0,0,0,0,0,0,0,0,0,0,0,0,0,0,0,0,0,0,0,0,0,0,0,0,0,0,0,0,0,0,0,0],"sum_hessian":[2.3252064E4,1.7957453E4,5.294611E3,9.654993E3,8.302461E3,2.1546501E3,3.1399604E3,6.789341E3,2.8656519E3,7.825054E3,4.7740726E2,2.1357188E3,1.8931503E1,2.2886096E3,8.513509E2,6.1539253E3,6.3541565E2,2.5751558E3,2.9049612E2,7.305091E3,5.1996326E2,4.7196106E2,5.4462028E0,2.0813423E3,5.437648E1,5.352598E0,1.3578906E1,1.630381E3,6.5822864E2,8.4277814E2,8.572777E0,4.377037E3,1.7768883E3,6.1099646E2,2.4419239E1,6.85747E0,2.5682983E3,7.2012974E3,1.0379317E2,5.0927454E2,1.068872E1,1.1212148E1,4.3164333E1,1.4141299E3,2.1625111E2,5.97155E2,6.107363E1,7.7311365E2,3.6039233E3,1.7337028E3,4.3185574E1,1.889444E1,5.92102E2,5.833308E0,2.5624648E3,7.1624585E3,3.8839104E1,4.6830276E1,5.696289E1,5.0396786E2,5.3066416E0,5.5085673E0,5.703581E0,1.102057E3,3.1207278E2,2.0270131E2,1.3549801E1,3.9309183E2,2.0406317E2],"tree_param":{"num_deleted":"0","num_feature":"33","num_nodes":"69","size_leaf_vector":"1"}},{"base_weights":[1.5601019E-3,3.0626398E-1,-1.0207059E0,1.1717193E-1,1.2411476E0,-1.2388395E0,-8.759403E-1,2.825968E-1,-1.2581636E0,1.2535273E-1,-1.158336E-1,-1.2453198E0,-7.3554045E-1,-7.533676E-1,-1.2222521E0,5.333116E-1,-4.0282193E-1,-3.2131395E-1,-1.2452122E0,-1.2488725E-1,-7.718035E-1,5.0155412E-2,-1.2271207E-1,-7.1000963E-1,-1.0048292E0,-1.2451225E-1,1.18284404E-1,3.9004356E-1,1.1770997E0,-7.37953E-1,1.1452466E0,-1.2513418E0,-3.8343203E-1,1.9834448E-2,-1.1921245E-1,-6.991842E-1,-1.2652655E-1,-1.0208468E-1,-1.0711259E0,5.100621E-2,-9.9898785E-2,-1.3846084E-1,1.24490194E-1,-4.699931E-2,-1.3185036E-1,1.2093556E-1,-1.0163192E-1,-4.8984587E-3,-1.2554292E-1,4.4629164E-2,-1.05698586E-1,-1.8154135E-2,-7.0778854E-2,6.4250946E-2,-4.7599915E-2,-1.08786486E-1,-5.7306318E-3],"categories":[],"categories_nodes":[],"categories_segments":[],"categories_sizes":[],"default_left":[0,0,0,0,0,0,0,0,0,0,0,0,0,0,0,0,0,0,0,0,0,0,0,0,0,0,0,0,0,0,0,0,0,0,0,0,0,0,0,0,0,0,0,0,0,0,0,0,0,0,0,0,0,0,0,0,0],"id":9,"left_children":[1,3,5,7,9,11,13,15,17,-1,-1,19,21,23,25,27,29,-1,31,-1,33,-1,-1,35,37,-1,-1,39,41,43,45,47,49,-1,-1,51,-1,53,55,-1,-1,-1,-1,-1,-1,-1,-1,-1,-1,-1,-1,-1,-1,-1,-1,-1,-1],"loss_changes":[6.8073306E3,2.9760076E3,1.5717041E2,3.1865923E3,8.5592285E1,5.406494E0,1.2707861E2,2.1486616E3,3.3628174E1,0E0,0E0,2.1516113E0,1.7747406E1,2.3465576E1,4.4805054E1,8.437334E2,1.7381775E3,0E0,7.256836E0,0E0,7.477433E0,0E0,0E0,1.0391968E1,1.9266785E1,0E0,0E0,1.2490549E3,2.910332E2,4.2754895E2,8.3878845E1,7.1030273E0,7.3059053E0,0E0,0E0,8.131958E0,0E0,6.829683E0,4.9689026E0,0E0,0E0,0E0,0E0,0E0,0E0,0E0,0E0,0E0,0E0,0E0,0E0,0E0,0E0,0E0,0E0,0E0,0E0],"parents":[2147483647,0,0,1,1,2,2,3,3,4,4,5,5,6,6,7,7,8,8,11,11,12,12,13,13,14,14,15,15,16,16,18,18,20,20,23,23,24,24,27,27,28,28,29,29,30,30,31,31,32,32,35,35,37,37,38,38],"right_children":[2,4,6,8,10,12,14,16,18,-1,-1,20,22,24,26,28,30,-1,32,-1,34,-1,-1,36,38,-1,-1,40,42,44,46,48,50,-1,-1,52,-1,54,56,-1,-1,-1,-1,-1,-1,-1,-1,-1,-1,-1,-1,-1,-1,-1,-1,-1,-1],"split_conditions":[6.8894244E2,1.6572858E3,6.769852E-1,6E0,8E0,6E0,3.2E1,1E0,2.8E0,1.2535273E-1,-1.158336E-1,1E0,6.5E0,2.6845637E4,1.3241909E3,7.8015093E3,2E0,-3.2131395E-1,1.450125E3,-1.2488725E-1,1.6129032E4,5.0155412E-2,-1.2271207E-1,4.8E0,3.6001205E-5,-1.2451225E-1,1.18284404E-1,1E0,6E0,1E0,8E0,2.104068E1,2.7E1,1.9834448E-2,-1.1921245E-1,1E0,-1.2652655E-1,3.5098777E4,4E6,5.100621E-2,-9.9898785E-2,-1.3846084E-1,1.24490194E-1,-4.699931E-2,-1.3185036E-1,1.2093556E-1,-1.0163192E-1,-4.8984587E-3,-1.2554292E-1,4.4629164E-2,-1.05698586E-1,-1.8154135E-2,-7.0778854E-2,6.4250946E-2,-4.7599915E-2,-1.08786486E-1,-5.7306318E-3],"split_indices":[5,25,8,32,9,32,30,17,10,0,0,15,24,5,11,2,9,0,25,0,5,0,0,25,0,0,0,18,10,18,16,0,9,0,0,16,0,6,4,0,0,0,0,0,0,0,0,0,0,0,0,0,0,0,0,0,0],"split_type":[0,0,0,0,0,0,0,0,0,0,0,0,0,0,0,0,0,0,0,0,0,0,0,0,0,0,0,0,0,0,0,0,0,0,0,0,0,0,0,0,0,0,0,0,0,0,0,0,0,0,0,0,0,0,0,0,0],"sum_hessian":[2.1852428E4,1.6835205E4,5.0172227E3,1.400396E4,2.8312456E3,1.9981505E3,3.019072E3,1.2501188E4,1.5027714E3,2.81723E3,1.4015612E1,1.9710984E3,2.705214E1,2.2324043E3,7.8666766E2,9.1533955E3,3.3477925E3,8.213132E0,1.4945582E3,1.9545847E3,1.651365E1,7.629152E0,1.9422989E1,1.9076937E3,3.247107E2,7.7977655E2,6.891112E0,7.488641E3,1.6647544E3,2.7525083E3,5.9528424E2,1.4834387E3,1.1119438E1,5.079589E0,1.1434062E1,1.8736045E3,3.4089123E1,2.249195E1,3.0221875E2,6.8936997E3,5.949417E2,4.2387016E1,1.6223674E3,1.8846212E3,8.6788696E2,5.786103E2,1.6673962E1,5.1526003E0,1.4782861E3,5.0667973E0,6.052641E0,3.1185534E1,1.8424191E3,7.189458E0,1.5302492E1,2.97141E2,5.077742E0],"tree_param":{"num_deleted":"0","num_feature":"33","num_nodes":"57","size_leaf_vector":"1"}},{"base_weights":[3.5172125E-4,-2.50093E-1,8.2633996E-1,1.2654215E-1,-8.23536E-1,1.1842803E0,-1.2217927E-1,-6.7037696E-1,4.588638E-1,-9.9638826E-1,3.923113E-1,-1.4769595E0,1.2221504E0,-3.3714098E-1,-1.1560296E0,4.69517E-2,-1.1831597E-1,-1.0210224E0,1.152033E0,1.2040888E0,-8.9974713E-1,-1.2640225E0,-3.0669773E-1,-7.036169E-3,1.2243116E0,-3.2332428E-2,-6.3201994E-1,-8.943704E-1,-1.3027307E0,-1.235623E0,-8.6469334E-1,4.0247746E-2,1.21170364E-1,1.2216796E-1,8.021206E-1,-1.1733536E0,-1.407691E-2,-1.4064787E-1,-1.9422447E-2,1.2261287E-1,9.7638986E-5,-5.634587E-2,-1.0249304E-1,-9.4967745E-2,4.7547888E-2,-1.6594166E-1,-1.2193868E-1,-1.238085E-1,-5.7460494E-2,-1.2085158E-1,-7.302674E-2,2.8891368E-2,1.2093907E-1,-5.3849485E-2,-1.2125828E-1,3.5462692E-2,-1.4029115E-1],"categories":[],"categories_nodes":[],"categories_segments":[],"categories_sizes":[],"default_left":[0,0,0,0,0,0,0,0,0,0,0,0,0,0,0,0,0,0,0,0,0,0,0,0,0,0,0,0,0,0,0,0,0,0,0,0,0,0,0,0,0,0,0,0,0,0,0,0,0,0,0,0,0,0,0,0,0],"id":10,"left_children":[1,3,5,7,9,11,-1,13,15,17,19,21,23,25,27,-1,-1,29,31,33,35,37,-1,-1,39,-1,41,43,45,47,49,-1,-1,-1,51,53,55,-1,-1,-1,-1,-1,-1,-1,-1,-1,-1,-1,-1,-1,-1,-1,-1,-1,-1,-1,-1],"loss_changes":[4.314716E3,3.456829E3,3.5590876E3,2.5587722E3,1.3339023E3,4.1815283E2,0E0,4.5962036E2,1.19756836E2,2.9518457E2,8.301312E2,1.5456917E1,1.1581055E1,6.576721E0,4.30094E1,0E0,0E0,1.8300488E2,2.1866379E0,2.253357E0,7.389589E1,7.6810684E0,0E0,0E0,8.91748E0,0E0,1.2617531E0,3.2236725E1,1.9645996E1,2.8706055E0,1.4597339E2,0E0,0E0,0E0,4.417206E0,4.9823303E0,3.8086666E1,0E0,0E0,0E0,0E0,0E0,0E0,0E0,0E0,0E0,0E0,0E0,0E0,0E0,0E0,0E0,0E0,0E0,0E0,0E0,0E0],"parents":[2147483647,0,0,1,1,2,2,3,3,4,4,5,5,7,7,8,8,9,9,10,10,11,11,12,12,13,13,14,14,17,17,18,18,19,19,20,20,21,21,24,24,26,26,27,27,28,28,29,29,30,30,34,34,35,35,36,36],"right_children":[2,4,6,8,10,12,-1,14,16,18,20,22,24,26,28,-1,-1,30,32,34,36,38,-1,-1,40,-1,42,44,46,48,50,-1,-1,-1,52,54,56,-1,-1,-1,-1,-1,-1,-1,-1,-1,-1,-1,-1,-1,-1,-1,-1,-1,-1,-1,-1],"split_conditions":[1.5414928E2,1.692772E-5,1E1,1E0,6.2586E4,6E0,-1.2217927E-1,1E0,1E0,9.6E2,6.2617E4,1.2E1,2E1,1E0,1E0,4.69517E-2,-1.1831597E-1,1E0,3.956E0,1.13217115E-1,2E0,2.8E0,-3.0669773E-1,-7.036169E-3,8E0,-3.2332428E-2,3E1,8.191E3,1E0,5E0,6.769852E-1,4.0247746E-2,1.21170364E-1,1.2216796E-1,1.1940503E-1,1E0,1.84E2,-1.4064787E-1,-1.9422447E-2,1.2261287E-1,9.7638986E-5,-5.634587E-2,-1.0249304E-1,-9.4967745E-2,4.7547888E-2,-1.6594166E-1,-1.2193868E-1,-1.238085E-1,-5.7460494E-2,-1.2085158E-1,-7.302674E-2,2.8891368E-2,1.2093907E-1,-5.3849485E-2,-1.2125828E-1,3.5462692E-2,-1.4029115E-1],"split_indices":[2,0,24,16,23,10,0,18,18,32,23,32,31,9,17,0,0,17,3,0,18,10,0,0,9,0,23,23,9,18,8,0,0,0,0,16,30,0,0,0,0,0,0,0,0,0,0,0,0,0,0,0,0,0,0,0,0],"split_type":[0,0,0,0,0,0,0,0,0,0,0,0,0,0,0,0,0,0,0,0,0,0,0,0,0,0,0,0,0,0,0,0,0,0,0,0,0,0,0,0,0,0,0,0,0,0,0,0,0,0,0,0,0,0,0,0,0],"sum_hessian":[2.0855422E4,1.6003605E4,4.851816E3,9.659734E3,6.3438716E3,4.1304346E3,7.2138153E2,2.8423528E3,6.8173813E3,5.554476E3,7.8939557E2,5.7382397E1,4.073052E3,1.6868215E3,1.1555312E3,6.774206E3,4.3175087E1,5.492074E3,6.2401894E1,4.8489197E2,3.0450357E2,5.224372E1,5.1386747E0,6.668975E0,4.066383E3,1.6136488E3,7.3172806E1,4.17912E2,7.3761926E2,2.3114673E3,3.180607E3,5.296058E0,5.7105835E1,4.6236987E2,2.2522118E1,2.3230182E2,7.220177E1,4.5744152E1,6.4995675E0,4.0602683E3,6.1148667E0,6.459059E1,8.582214E0,4.0205878E2,1.5853219E1,1.3589973E2,6.017195E2,2.3018696E3,9.59777E0,8.915494E2,2.2890576E3,1.0830001E1,1.1692117E1,1.4524465E1,2.1777736E2,5.7586517E1,1.4615248E1],"tree_param":{"num_deleted":"0","num_feature":"33","num_nodes":"57","size_leaf_vector":"1"}},{"base_weights":[-1.0436244E-3,-4.483357E-1,6.153605E-1,-7.9056615E-1,9.529581E-1,9.507742E-1,-9.0947187E-1,-8.931611E-1,7.623357E-1,1.1893315E0,-1.1887514E-1,1.0757899E0,-1.1805787E0,-8.097449E-1,-1.1806976E0,-1.0696898E0,-7.259547E-1,1.149892E0,-1.20128356E-1,-7.0548736E-2,1.1952436E-1,1.1551685E0,-2.7411407E-1,-1.6408829E-2,-1.1940932E-1,-7.254625E-2,-8.788745E-1,-1.1903858E-1,-5.161938E-2,-1.0816082E0,-3.8560876E-1,-3.957184E-1,-9.546578E-1,1.1909174E-1,2.4982852E-1,1.1725122E0,-1.2125723E0,-1.2234881E0,1.5480197E-2,-1.1505809E-1,-8.6151195E-1,-9.8724864E-2,-1.1928395E-1,1.17102504E-1,-1.2032064E-1,5.033843E-2,-9.6639514E-2,-1.2040547E-1,-6.894402E-2,5.3176623E-2,-1.668284E-2,1.1869351E-1,-1.3447993E-1,-5.4097164E-2,-1.3490601E-1,-1.3267024E-1,1.897829E-2,1.37358075E-2,-5.7926524E-2,-8.409065E-2,-1.0680806E-1],"categories":[],"categories_nodes":[],"categories_segments":[],"categories_sizes":[],"default_left":[0,0,0,0,0,0,0,0,0,0,0,0,0,0,0,0,0,0,0,0,0,0,0,0,0,0,0,0,0,0,0,0,0,0,0,0,0,0,0,0,0,0,0,0,0,0,0,0,0,0,0,0,0,0,0,0,0,0,0,0,0],"id":11,"left_children":[1,3,5,7,9,11,13,15,17,19,-1,21,23,25,27,29,31,33,-1,-1,-1,35,37,-1,-1,-1,39,-1,-1,41,43,45,47,-1,49,51,53,55,57,-1,59,-1,-1,-1,-1,-1,-1,-1,-1,-1,-1,-1,-1,-1,-1,-1,-1,-1,-1,-1,-1],"loss_changes":[5.492395E3,5.5368584E3,4.285151E3,1.4789766E3,1.1487312E3,1.8309634E3,3.9710815E1,2.559624E2,4.3934058E2,2.3762451E1,0E0,6.9551074E2,4.900757E0,5.658264E0,1.8139648E0,3.393799E1,3.3735596E2,1.732666E1,0E0,0E0,0E0,2.5302539E2,9.939332E1,0E0,0E0,0E0,1.6540833E0,0E0,0E0,4.225049E1,9.57976E1,9.406996E2,1.7374707E2,0E0,2.750527E0,2.2243457E2,3.2064743E0,1.2687828E1,2.0152842E1,0E0,1.3434448E0,0E0,0E0,0E0,0E0,0E0,0E0,0E0,0E0,0E0,0E0,0E0,0E0,0E0,0E0,0E0,0E0,0E0,0E0,0E0,0E0],"parents":[2147483647,0,0,1,1,2,2,3,3,4,4,5,5,6,6,7,7,8,8,9,9,11,11,12,12,13,13,14,14,15,15,16,16,17,17,21,21,22,22,26,26,29,29,30,30,31,31,32,32,34,34,35,35,36,36,37,37,38,38,40,40],"right_children":[2,4,6,8,10,12,14,16,18,20,-1,22,24,26,28,30,32,34,-1,-1,-1,36,38,-1,-1,-1,40,-1,-1,42,44,46,48,-1,50,52,54,56,58,-1,60,-1,-1,-1,-1,-1,-1,-1,-1,-1,-1,-1,-1,-1,-1,-1,-1,-1,-1,-1,-1],"split_conditions":[8.192E3,2.1181383E4,6.5535E4,6.2586E4,8E0,3.6E1,2E0,1E0,6.5392E4,6E0,-1.1887514E-1,1E0,4.8E1,3.0994415E-5,1.3699532E-3,7.073189E3,1E0,6.2617E4,-1.20128356E-1,-7.0548736E-2,1.1952436E-1,2E0,6.769852E-1,-1.6408829E-2,-1.1940932E-1,-7.254625E-2,3.310893E2,-1.1903858E-1,-5.161938E-2,4.196167E-5,8E0,1.19E2,7.605553E-5,1.1909174E-1,8.5714287E-1,2.015907E6,1E-4,1.118034E1,1.3513514E4,-1.1505809E-1,1.431503E4,-9.8724864E-2,-1.1928395E-1,1.17102504E-1,-1.2032064E-1,5.033843E-2,-9.6639514E-2,-1.2040547E-1,-6.894402E-2,5.3176623E-2,-1.668284E-2,1.1869351E-1,-1.3447993E-1,-5.4097164E-2,-1.3490601E-1,-1.3267024E-1,1.897829E-2,1.37358075E-2,-5.7926524E-2,-8.409065E-2,-1.0680806E-1],"split_indices":[22,2,22,23,24,31,16,17,23,10,0,18,0,0,0,2,18,23,0,0,0,16,8,0,0,0,7,0,0,0,14,22,0,0,8,0,1,11,7,0,7,0,0,0,0,0,0,0,0,0,0,0,0,0,0,0,0,0,0,0,0],"split_type":[0,0,0,0,0,0,0,0,0,0,0,0,0,0,0,0,0,0,0,0,0,0,0,0,0,0,0,0,0,0,0,0,0,0,0,0,0,0,0,0,0,0,0,0,0,0,0,0,0,0,0,0,0,0,0,0,0,0,0,0,0],"sum_hessian":[1.9918781E4,1.1543039E4,8.375742E3,9.277702E3,2.2653362E3,6.8659067E3,1.5098351E3,8.7032E3,5.745019E2,2.0406118E3,2.2472424E2,6.486009E3,3.7989813E2,1.1071145E3,4.0272055E2,4.230667E3,4.4725337E3,4.8019244E2,9.430945E1,5.926456E0,2.0346854E3,6.125999E3,3.600097E2,5.254071E0,3.7464407E2,5.0471246E2,6.0240204E2,3.9600507E2,6.715476E0,4.1575054E3,7.316153E1,1.8313375E3,2.641196E3,4.5884384E2,2.1348602E1,6.081995E3,4.4003666E1,8.347498E1,2.7653473E2,3.1916328E1,5.704857E2,2.255175E3,1.9023304E3,2.5003149E1,4.815838E1,7.1103796E2,1.1202996E3,1.3591783E3,1.2820177E3,1.2711139E1,8.637464E0,6.047912E3,3.4082977E1,8.3944E0,3.5609264E1,7.791658E1,5.558406E0,2.3028159E2,4.6253136E1,5.237919E2,4.669384E1],"tree_param":{"num_deleted":"0","num_feature":"33","num_nodes":"61","size_leaf_vector":"1"}},{"base_weights":[5.076814E-3,2.4667396E-1,-8.815822E-1,8.224097E-2,1.1640822E0,-7.039768E-1,-1.17186405E-1,3.0010295E-1,-7.229935E-1,1.17566265E-1,-1.0686189E-1,-5.813402E-1,-1.1204764E0,1.6970037E-1,1.1698807E0,-1.1270471E0,6.541521E-1,-5.4361427E-1,-8.468676E-1,-1.1619111E0,4.8667973E-1,-4.624841E-1,3.7397748E-1,1.1736808E-1,3.1270158E-2,-1.135608E0,-4.021442E-2,1.1570413E0,-6.026646E-1,-5.8243275E-1,-4.531866E-1,-2.215038E-1,-9.1855323E-1,-1.1692812E0,-3.583693E-2,-1.0848216E-1,1.4463714E-1,-2.7336745E-2,-1.03239454E-1,4.1850884E-2,-1.203767E-1,-1.0504607E-1,-1.1881645E-1,-6.1365545E-2,8.115319E-2,1.1777844E-1,6.6738255E-2,-1.043851E-1,8.8233716E-4,-5.7035238E-2,-8.0861695E-2,1.6476726E-2,-4.665811E-2,1.7493883E-2,-7.36804E-2,-7.541577E-3,-9.491178E-2,-1.1740651E-1,-6.507865E-2],"categories":[],"categories_nodes":[],"categories_segments":[],"categories_sizes":[],"default_left":[0,0,0,0,0,0,0,0,0,0,0,0,0,0,0,0,0,0,0,0,0,0,0,0,0,0,0,0,0,0,0,0,0,0,0,0,0,0,0,0,0,0,0,0,0,0,0,0,0,0,0,0,0,0,0,0,0,0,0],"id":12,"left_children":[1,3,5,7,9,11,-1,13,15,-1,-1,17,19,21,23,25,27,29,31,33,35,37,39,-1,-1,41,43,45,47,49,51,53,55,57,-1,-1,-1,-1,-1,-1,-1,-1,-1,-1,-1,-1,-1,-1,-1,-1,-1,-1,-1,-1,-1,-1,-1,-1,-1],"loss_changes":[4.008022E3,2.2179312E3,2.0554395E2,2.1878516E3,5.904834E1,1.2628015E2,0E0,1.1129753E3,1.4785143E3,0E0,0E0,1.8679932E1,3.8241882E1,1.1026649E3,3.6520996E0,1.8944824E1,3.8187338E2,5.558899E0,1.0320923E1,2.690918E0,2.3984161E1,2.243341E2,4.5380365E2,0E0,0E0,7.645996E0,8.868544E0,3.407898E0,4.6764866E1,2.6167908E0,4.347931E0,5.4692216E0,5.300598E0,4.0612793E-1,0E0,0E0,0E0,0E0,0E0,0E0,0E0,0E0,0E0,0E0,0E0,0E0,0E0,0E0,0E0,0E0,0E0,0E0,0E0,0E0,0E0,0E0,0E0,0E0,0E0],"parents":[2147483647,0,0,1,1,2,2,3,3,4,4,5,5,7,7,8,8,11,11,12,12,13,13,14,14,15,15,16,16,17,17,18,18,19,19,20,20,21,21,22,22,25,25,26,26,27,27,28,28,29,29,30,30,31,31,32,32,33,33],"right_children":[2,4,6,8,10,12,-1,14,16,-1,-1,18,20,22,24,26,28,30,32,34,36,38,40,-1,-1,42,44,46,48,50,52,54,56,58,-1,-1,-1,-1,-1,-1,-1,-1,-1,-1,-1,-1,-1,-1,-1,-1,-1,-1,-1,-1,-1,-1,-1,-1,-1],"split_conditions":[2.6123303E2,1.6572858E3,2E0,1E0,8E0,1.1673212E-2,-1.17186405E-1,2E1,6.2586E4,1.17566265E-1,-1.0686189E-1,1.3486508E4,1.1278125E3,1E0,1.199149E3,4E0,6.2617E4,1.0754626E4,3.9100647E-5,5.5487124E3,6.6E1,1E0,7.020579E-2,1.1736808E-1,3.1270158E-2,1.1122894E-1,1.25E0,1.13217115E-1,2E0,1.3699532E-3,1E0,4.993219E4,1E0,1.3315252E5,-3.583693E-2,-1.0848216E-1,1.4463714E-1,-2.7336745E-2,-1.03239454E-1,4.1850884E-2,-1.203767E-1,-1.0504607E-1,-1.1881645E-1,-6.1365545E-2,8.115319E-2,1.1777844E-1,6.6738255E-2,-1.043851E-1,8.8233716E-4,-5.7035238E-2,-8.0861695E-2,1.6476726E-2,-4.665811E-2,1.7493883E-2,-7.36804E-2,-7.541577E-3,-9.491178E-2,-1.1740651E-1,-6.507865E-2],"split_indices":[6,25,16,9,9,0,0,31,23,0,0,6,25,16,4,18,23,6,0,1,23,18,6,0,0,0,8,0,18,0,16,6,16,7,0,0,0,0,0,0,0,0,0,0,0,0,0,0,0,0,0,0,0,0,0,0,0,0,0],"split_type":[0,0,0,0,0,0,0,0,0,0,0,0,0,0,0,0,0,0,0,0,0,0,0,0,0,0,0,0,0,0,0,0,0,0,0,0,0,0,0,0,0,0,0,0,0,0,0,0,0,0,0,0,0,0,0,0,0,0,0],"sum_hessian":[1.870862E4,1.4703139E4,4.0054814E3,1.2469371E4,2.233767E3,2.487379E3,1.5181027E3,9.814688E3,2.6546829E3,2.2227566E3,1.1010668E1,1.9236143E3,5.637646E2,8.536198E3,1.2784905E3,2.0526816E3,6.020012E2,1.6873071E3,2.3630716E2,5.49926E2,1.38386135E1,2.0842458E3,6.4519517E3,1.2723639E3,6.126588E0,2.0365034E3,1.6178295E1,4.3007468E2,1.7192654E2,1.175952E3,5.1135507E2,2.4866257E1,2.114409E2,5.443536E2,5.572436E0,5.157912E0,8.680701E0,1.5661849E3,5.1806104E2,6.2756226E3,1.7632938E2,7.859954E2,1.2505079E3,9.9059925E0,6.2723036E0,4.11052E2,1.902269E1,9.955468E1,7.2371864E1,1.1200923E3,5.5859726E1,1.0450593E1,5.0090448E2,1.4317577E1,1.054868E1,7.632545E0,2.0380835E2,5.3793317E2,6.420408E0],"tree_param":{"num_deleted":"0","num_feature":"33","num_nodes":"59","size_leaf_vector":"1"}},{"base_weights":[-1.8469838E-5,-4.295173E-1,5.928062E-1,-7.378999E-1,9.151811E-1,9.2315453E-1,-8.642369E-1,-3.327406E-1,-9.1035765E-1,1.1489828E0,-1.1475539E-1,1.0378002E0,-1.1372685E0,-7.7611583E-1,-1.1377262E0,-4.005061E-3,-1.12321E0,-9.173977E-1,8.46106E-1,-4.157595E-2,1.15450345E-1,1.115068E0,-1.6235916E-1,-1.15238205E-1,-2.6010036E-2,-1.1209611E-1,-7.670174E-1,-3.089802E-2,-1.1491199E-1,-3.2735133E-1,1.1296996E0,-1.1394652E-1,-5.7163686E-1,-9.8819107E-1,-7.427898E-1,1.10915616E-1,-9.528335E-3,1.1330085E0,-1.1449628E0,-1.1308709E0,9.924825E-2,-7.5640535E-1,-9.760852E-2,4.084514E-2,-1.1635574E-1,5.509575E-2,1.1554649E-1,-3.8313367E-3,-1.1044043E-1,-9.2683E-2,-1.15124546E-1,-5.8189996E-2,-1.1553066E-1,1.145822E-1,-1.22973554E-1,-4.8768383E-2,-1.2761638E-1,-1.2100666E-1,-1.2658455E-3,1.7336333E-2,-9.0338744E-2,-7.58778E-2,-3.9997853E-2],"categories":[],"categories_nodes":[],"categories_segments":[],"categories_sizes":[],"default_left":[0,0,0,0,0,0,0,0,0,0,0,0,0,0,0,0,0,0,0,0,0,0,0,0,0,0,0,0,0,0,0,0,0,0,0,0,0,0,0,0,0,0,0,0,0,0,0,0,0,0,0,0,0,0,0,0,0,0,0,0,0,0,0],"id":13,"left_children":[1,3,5,7,9,11,13,15,17,19,-1,21,23,25,27,29,31,33,35,-1,-1,37,39,-1,-1,-1,41,-1,-1,43,45,-1,47,49,51,-1,-1,53,55,57,59,61,-1,-1,-1,-1,-1,-1,-1,-1,-1,-1,-1,-1,-1,-1,-1,-1,-1,-1,-1,-1,-1],"loss_changes":[4.545652E3,4.2937104E3,3.6109268E3,5.880405E2,9.3290906E2,1.4455532E3,3.2344604E1,6.537513E2,7.3822754E1,1.5546631E1,0E0,5.374707E2,3.8374329E0,2.2525635E0,2.6670227E0,6.521715E2,5.8033447E0,7.182129E1,6.1610107E0,0E0,0E0,2.2197656E2,8.919603E1,0E0,0E0,0E0,1.3706055E0,0E0,0E0,8.524061E2,5.079651E0,0E0,6.4746284E0,4.0575684E1,1.1209888E2,0E0,0E0,1.6489746E2,2.9368324E0,6.490822E0,2.0692863E1,4.126587E-1,0E0,0E0,0E0,0E0,0E0,0E0,0E0,0E0,0E0,0E0,0E0,0E0,0E0,0E0,0E0,0E0,0E0,0E0,0E0,0E0,0E0],"parents":[2147483647,0,0,1,1,2,2,3,3,4,4,5,5,6,6,7,7,8,8,9,9,11,11,12,12,13,13,14,14,15,15,16,16,17,17,18,18,21,21,22,22,26,26,29,29,30,30,32,32,33,33,34,34,37,37,38,38,39,39,40,40,41,41],"right_children":[2,4,6,8,10,12,14,16,18,20,-1,22,24,26,28,30,32,34,36,-1,-1,38,40,-1,-1,-1,42,-1,-1,44,46,-1,48,50,52,-1,-1,54,56,58,60,62,-1,-1,-1,-1,-1,-1,-1,-1,-1,-1,-1,-1,-1,-1,-1,-1,-1,-1,-1,-1,-1],"split_conditions":[8.192E3,2.0214188E4,6.5535E4,1.19E2,8E0,3.6E1,2E0,2.0404415E1,7.8015093E3,6E0,-1.1475539E-1,1E0,7E0,1E0,4.415011E3,1.0539385E1,1E0,1.9477989E2,1.2984874E3,-4.157595E-2,1.15450345E-1,2E0,6.769852E-1,-1.15238205E-1,-2.6010036E-2,-1.1209611E-1,2.8276207E4,-3.089802E-2,-1.1491199E-1,1E0,1.7533094E1,-1.1394652E-1,6.199806E3,4.4402248E-1,2E0,1.10915616E-1,-9.528335E-3,8.189808E5,1E-4,1.8E1,8E0,1.3888424E4,-9.760852E-2,4.084514E-2,-1.1635574E-1,5.509575E-2,1.1554649E-1,-3.8313367E-3,-1.1044043E-1,-9.2683E-2,-1.15124546E-1,-5.8189996E-2,-1.1553066E-1,1.145822E-1,-1.22973554E-1,-4.8768383E-2,-1.2761638E-1,-1.2100666E-1,-1.2658455E-3,1.7336333E-2,-9.0338744E-2,-7.58778E-2,-3.9997853E-2],"split_indices":[22,2,22,22,24,31,16,5,2,10,0,18,18,16,5,7,15,7,4,0,0,16,8,0,0,0,5,0,0,18,7,0,4,5,16,0,0,1,1,12,16,7,0,0,0,0,0,0,0,0,0,0,0,0,0,0,0,0,0,0,0,0,0],"split_type":[0,0,0,0,0,0,0,0,0,0,0,0,0,0,0,0,0,0,0,0,0,0,0,0,0,0,0,0,0,0,0,0,0,0,0,0,0,0,0,0,0,0,0,0,0,0,0,0,0,0,0,0,0,0,0,0,0,0,0,0,0,0,0],"sum_hessian":[1.7850928E4,1.0351649E4,7.4992793E3,8.420975E3,1.9306748E3,6.113606E3,1.3856732E3,2.5152786E3,5.905696E3,1.7345615E3,1.9611324E2,5.7918804E3,3.217257E2,1.0511766E3,3.3449655E2,1.7772842E3,7.379944E2,5.8826523E3,2.3043447E1,5.7734566E0,1.7287881E3,5.4416914E3,3.501887E2,3.158558E2,5.8698955E0,2.3597368E1,1.0275793E3,5.0366673E0,3.294599E2,1.3834943E3,3.9378983E2,7.156564E2,2.233805E1,4.181902E3,1.7007505E3,1.7954485E1,5.0889635E0,5.399373E3,4.2318306E1,7.3848694E1,2.7634E2,9.8279E2,4.47893E1,7.3613715E2,6.473572E2,1.7903536E1,3.758863E2,1.1792678E1,1.0545374E1,3.043763E3,1.138139E3,1.2254523E3,4.752982E2,5.3708037E3,2.8569443E1,7.9533863E0,3.4364918E1,6.880418E1,5.044519E0,2.5818195E2,1.8158045E1,9.7489105E2,7.898936E0],"tree_param":{"num_deleted":"0","num_feature":"33","num_nodes":"63","size_leaf_vector":"1"}},{"base_weights":[-1.1748533E-3,-4.1317773E-1,5.735842E-1,-7.037406E-1,9.0579486E-1,9.0085405E-1,-8.2007307E-1,-7.915482E-1,7.0149076E-1,1.1289442E0,-1.130242E-1,1.0148991E0,-1.0216825E0,-7.259875E-1,-1.1200917E0,-9.888965E-1,-6.0975397E-1,1.055424E0,-1.1375699E-1,-3.870466E-2,1.1358573E-1,1.0932426E0,-1.9879894E-1,-1.1338597E-1,3.436873E-1,-6.6300936E-2,-7.810596E-1,-3.0981217E-2,-1.1323511E-1,-9.050579E-1,-1.0969614E0,-3.0398476E-1,-8.417215E-1,1.113886E0,4.144611E-1,1.1101799E0,-1.0948155E0,-1.1230451E0,4.928474E-2,9.3937707E-1,-1.23843625E-1,-1.0772295E-1,-7.636397E-1,-4.488154E-2,-9.244497E-2,-1.1248213E-1,-3.9328095E-2,4.7524344E-2,-8.665727E-2,-1.124895E-1,-5.682827E-2,3.5452988E-2,1.1385117E-1,6.0917687E-2,3.3024314E-3,1.123847E-1,-1.2580936E-1,-4.573196E-2,-1.1985191E-1,-1.2314115E-1,-4.7770597E-2,2.485658E-2,-5.7613906E-2,9.622832E-3,1.3447598E-1,-7.428558E-2,-9.68415E-2],"categories":[],"categories_nodes":[],"categories_segments":[],"categories_sizes":[],"default_left":[0,0,0,0,0,0,0,0,0,0,0,0,0,0,0,0,0,0,0,0,0,0,0,0,0,0,0,0,0,0,0,0,0,0,0,0,0,0,0,0,0,0,0,0,0,0,0,0,0,0,0,0,0,0,0,0,0,0,0,0,0,0,0,0,0,0,0],"id":14,"left_children":[1,3,5,7,9,11,13,15,17,19,-1,21,23,25,27,29,31,33,-1,-1,-1,35,37,-1,39,-1,41,-1,-1,43,45,47,49,51,53,55,57,59,61,63,-1,-1,65,-1,-1,-1,-1,-1,-1,-1,-1,-1,-1,-1,-1,-1,-1,-1,-1,-1,-1,-1,-1,-1,-1,-1,-1],"loss_changes":[3.9703489E3,3.7434302E3,3.1936655E3,9.8814136E2,8.024652E2,1.2441528E3,3.6593933E1,2.695161E2,3.078803E2,1.7176025E1,0E0,5.0927588E2,4.9165955E1,2.864746E0,2.642334E0,3.151709E1,2.779652E2,1.4212891E1,0E0,0E0,0E0,1.8756787E2,7.4759056E1,0E0,2.4542458E1,0E0,1.7588806E0,0E0,0E0,1.7490234E1,3.022522E1,7.433152E2,1.7190967E2,6.214142E0,2.501049E0,1.6292578E2,1.8701057E0,4.064369E0,3.21868E1,6.1040936E0,0E0,0E0,1.2801514E0,0E0,0E0,0E0,0E0,0E0,0E0,0E0,0E0,0E0,0E0,0E0,0E0,0E0,0E0,0E0,0E0,0E0,0E0,0E0,0E0,0E0,0E0,0E0,0E0],"parents":[2147483647,0,0,1,1,2,2,3,3,4,4,5,5,6,6,7,7,8,8,9,9,11,11,12,12,13,13,14,14,15,15,16,16,17,17,21,21,22,22,24,24,26,26,29,29,30,30,31,31,32,32,33,33,34,34,35,35,36,36,37,37,38,38,39,39,42,42],"right_children":[2,4,6,8,10,12,14,16,18,20,-1,22,24,26,28,30,32,34,-1,-1,-1,36,38,-1,40,-1,42,-1,-1,44,46,48,50,52,54,56,58,60,62,64,-1,-1,66,-1,-1,-1,-1,-1,-1,-1,-1,-1,-1,-1,-1,-1,-1,-1,-1,-1,-1,-1,-1,-1,-1,-1,-1],"split_conditions":[8.192E3,2.1181383E4,6.5535E4,3.9096E4,8E0,1.1111111E1,2E0,1E0,6.5392E4,6E0,-1.130242E-1,1E0,2E0,5.3290796E-2,4.2711855E3,4.196167E-5,1E0,1.13217115E-1,-1.1375699E-1,-3.870466E-2,1.1358573E-1,2E0,7.5E-1,-1.1338597E-1,8.69E2,-6.6300936E-2,3.310893E2,-3.0981217E-2,-1.1323511E-1,1.023E3,5.8237314E3,1.19E2,7.605553E-5,2.5150776E-3,1.6610447E1,2.015907E6,1E-4,4.682E-1,2.37E2,7E0,-1.23843625E-1,-1.0772295E-1,1.426634E4,-4.488154E-2,-9.244497E-2,-1.1248213E-1,-3.9328095E-2,4.7524344E-2,-8.665727E-2,-1.124895E-1,-5.682827E-2,3.5452988E-2,1.1385117E-1,6.0917687E-2,3.3024314E-3,1.123847E-1,-1.2580936E-1,-4.573196E-2,-1.1985191E-1,-1.2314115E-1,-4.7770597E-2,2.485658E-2,-5.7613906E-2,9.622832E-3,1.3447598E-1,-7.428558E-2,-9.68415E-2],"split_indices":[22,2,22,23,24,24,16,17,23,10,0,18,18,6,6,0,18,0,0,0,0,16,8,0,12,0,7,0,0,22,2,22,0,0,7,0,1,2,23,18,0,0,6,0,0,0,0,0,0,0,0,0,0,0,0,0,0,0,0,0,0,0,0,0,0,0,0],"split_type":[0,0,0,0,0,0,0,0,0,0,0,0,0,0,0,0,0,0,0,0,0,0,0,0,0,0,0,0,0,0,0,0,0,0,0,0,0,0,0,0,0,0,0,0,0,0,0,0,0,0,0,0,0,0,0,0,0,0,0,0,0,0,0,0,0,0,0],"sum_hessian":[1.6764572E4,9.765123E3,6.9994497E3,8.0027095E3,1.7624135E3,5.6687046E3,1.3307454E3,7.532538E3,4.7017175E2,1.5887783E3,1.7363518E2,5.351761E3,3.169431E2,1.01591E3,3.1483542E2,3.609368E3,3.9231702E3,3.9469238E2,7.5479355E1,6.896949E0,1.5818813E3,5.027426E3,3.243356E2,2.9310477E2,2.3838331E1,4.8086597E2,5.35044E2,5.205548E0,3.0962988E2,2.0383113E3,1.5710565E3,1.69355E3,2.22962E3,3.6088257E2,3.3809807E1,4.989343E3,3.8082966E1,6.797354E1,2.5636206E2,1.7658966E1,6.179365E0,2.6023169E1,5.090208E2,8.42973E1,1.9540139E3,1.5105121E3,6.0544464E1,7.100512E2,9.8349884E2,1.0936034E3,1.1360167E3,1.194688E1,3.489357E2,2.1814646E1,1.1995162E1,4.9612793E3,2.8063507E1,6.2201414E0,3.1862825E1,5.729017E1,1.06833725E1,1.9499315E2,6.1368923E1,6.2155013E0,1.1443464E1,4.6676224E2,4.2258575E1],"tree_param":{"num_deleted":"0","num_feature":"33","num_nodes":"67","size_leaf_vector":"1"}},{"base_weights":[-1.4619353E-3,-3.961266E-1,5.5324304E-1,-6.728988E-1,8.9571667E-1,8.7442464E-1,-7.8246856E-1,-7.5469995E-1,6.784836E-1,1.1154583E0,-1.11493826E-1,9.8302096E-1,-1.1029868E0,-7.181199E-1,-1.0915549E-1,-6.9217736E-1,-1.0664933E0,1.0342715E0,-1.1195727E-1,-9.344558E-3,1.12156786E-1,1.0693626E0,-1.7384993E-1,-1.1201187E-1,-2.8139327E-2,-6.6576797E-1,-1.0921538E0,-4.038413E-1,-7.889952E-1,-1.1164014E0,-4.665543E-1,4.1729763E-1,1.0968529E0,1.081824E0,-1.1690477E-1,-1.0115893E0,2.586222E-2,-6.269095E-2,-7.037522E-1,-1.1142647E-1,-6.0197867E-2,1.7624948E-2,-1.1053015E-1,-8.724941E-2,-5.8144595E-2,-1.1204805E-1,-2.175811E-2,5.8333706E-2,-1.1015593E-1,5.623402E-2,-2.3994386E-2,1.12144984E-1,-3.1221977E-2,1.0858741E-1,-1.2562308E-1,-1.16261184E-1,-1.7027495E-2,1.5049444E-1,-2.063521E-3,-7.4122325E-2,-6.1951723E-2],"categories":[],"categories_nodes":[],"categories_segments":[],"categories_sizes":[],"default_left":[0,0,0,0,0,0,0,0,0,0,0,0,0,0,0,0,0,0,0,0,0,0,0,0,0,0,0,0,0,0,0,0,0,0,0,0,0,0,0,0,0,0,0,0,0,0,0,0,0,0,0,0,0,0,0,0,0,0,0,0,0],"id":15,"left_children":[1,3,5,7,9,11,13,15,17,19,-1,21,23,25,-1,27,29,31,-1,-1,-1,33,35,-1,-1,37,39,41,43,45,47,49,51,53,-1,55,57,-1,59,-1,-1,-1,-1,-1,-1,-1,-1,-1,-1,-1,-1,-1,-1,-1,-1,-1,-1,-1,-1,-1,-1],"loss_changes":[3.429368E3,3.273156E3,2.7943628E3,8.3386426E2,7.149364E2,1.1284932E3,2.4151001E1,1.3766553E2,2.766991E2,1.0967041E1,0E0,4.9745264E2,3.397766E0,1.9625732E1,0E0,1.649519E2,3.4810425E1,1.3296448E1,0E0,0E0,0E0,1.3045654E2,5.8090607E1,0E0,0E0,7.8726196E-1,5.332489E-1,6.072289E2,7.618799E1,3.6312256E0,6.2630302E1,3.4967494E0,1.1737396E1,4.497168E1,0E0,8.158302E0,1.9480637E1,0E0,8.4724426E-1,0E0,0E0,0E0,0E0,0E0,0E0,0E0,0E0,0E0,0E0,0E0,0E0,0E0,0E0,0E0,0E0,0E0,0E0,0E0,0E0,0E0,0E0],"parents":[2147483647,0,0,1,1,2,2,3,3,4,4,5,5,6,6,7,7,8,8,9,9,11,11,12,12,13,13,15,15,16,16,17,17,21,21,22,22,25,25,26,26,27,27,28,28,29,29,30,30,31,31,32,32,33,33,35,35,36,36,38,38],"right_children":[2,4,6,8,10,12,14,16,18,20,-1,22,24,26,-1,28,30,32,-1,-1,-1,34,36,-1,-1,38,40,42,44,46,48,50,52,54,-1,56,58,-1,60,-1,-1,-1,-1,-1,-1,-1,-1,-1,-1,-1,-1,-1,-1,-1,-1,-1,-1,-1,-1,-1,-1],"split_conditions":[8.192E3,2.0214188E4,6.5535E4,3.9096E4,8E0,3.6E1,1.426634E4,1E-4,6.5392E4,2E1,-1.11493826E-1,1E0,7E0,1E-4,-1.0915549E-1,1.19E2,4.682E-1,1.7224148E1,-1.1195727E-1,-9.344558E-3,1.12156786E-1,8.189808E5,6.769852E-1,-1.1201187E-1,-2.8139327E-2,1E0,7.704E3,1E0,5.069638E-1,1.7848102E4,4E1,7.8571427E-1,2.0404415E1,1E0,-1.1690477E-1,3.2E1,3.9835843E-1,-6.269095E-2,1.0866072E4,-1.1142647E-1,-6.0197867E-2,1.7624948E-2,-1.1053015E-1,-8.724941E-2,-5.8144595E-2,-1.1204805E-1,-2.175811E-2,5.8333706E-2,-1.1015593E-1,5.623402E-2,-2.3994386E-2,1.12144984E-1,-3.1221977E-2,1.0858741E-1,-1.2562308E-1,-1.16261184E-1,-1.7027495E-2,1.5049444E-1,-2.063521E-3,-7.4122325E-2,-6.1951723E-2],"split_indices":[22,2,22,23,24,31,6,1,23,31,0,18,18,1,0,22,2,5,0,0,0,1,8,0,0,18,23,18,8,6,31,8,5,21,0,30,5,0,6,0,0,0,0,0,0,0,0,0,0,0,0,0,0,0,0,0,0,0,0,0,0],"split_type":[0,0,0,0,0,0,0,0,0,0,0,0,0,0,0,0,0,0,0,0,0,0,0,0,0,0,0,0,0,0,0,0,0,0,0,0,0,0,0,0,0,0,0,0,0,0,0,0,0,0,0,0,0,0,0,0,0,0,0,0,0],"sum_hessian":[1.566283E4,9.151871E3,6.5109595E3,7.53754E3,1.6143312E3,5.249177E3,1.2617825E3,7.1078096E3,4.2973032E2,1.4557313E3,1.5859978E2,4.9764326E3,2.7274442E2,1.0473762E3,2.1440623E2,5.9235303E3,1.1842794E3,3.5914532E2,7.0584984E1,7.16583E0,1.4485656E3,4.630968E3,3.4546472E2,2.6669812E2,6.0462894E0,9.214518E2,1.2592445E2,1.4905835E3,4.432947E3,1.0923782E3,9.190113E1,3.3927628E1,3.252177E2,4.605888E3,2.5079634E1,6.581669E1,2.79648E2,4.6543814E2,4.5601367E2,1.1907595E2,6.8485065E0,8.1620654E2,6.74377E2,3.1585498E3,1.274397E3,1.0870868E3,5.2913976E0,3.460708E1,5.7294052E1,2.8036886E1,5.890742E0,3.1990845E2,5.3092737E0,4.5985005E3,7.3875604E0,5.5375576E1,1.04411125E1,7.6328154E0,2.720152E2,3.0939566E2,1.46618E2],"tree_param":{"num_deleted":"0","num_feature":"33","num_nodes":"61","size_leaf_vector":"1"}},{"base_weights":[-2.811593E-3,2.205935E-1,-7.646777E-1,7.778835E-2,1.100906E0,-5.954779E-1,-1.11010276E-1,1.9625399E-1,-1.126872E0,1.1112908E-1,-9.673171E-2,-4.9950227E-1,-1.0480367E0,9.724261E-2,1.0267434E0,-2.9314363E-1,-1.1027249E0,-9.8761404E-1,-4.4852644E-1,-1.0755652E0,7.4301414E-2,-2.8629193E-1,2.895836E-1,-1.0575924E0,1.102324E0,-1.1105055E0,-1.7570646E-2,-1.0399958E0,5.671338E-2,2.8155655E-1,-4.5626226E-1,-1.0887313E0,-6.0578704E-1,-4.7045343E-2,1.05323665E-1,3.413812E-2,-9.0075485E-2,-1.1906548E-1,-3.297853E-2,1.1048321E-1,6.3897304E-2,-4.720303E-2,-1.11531116E-1,-1.1036142E-1,-7.14261E-2,7.403669E-2,-2.7161522E-2,-8.54687E-2,-4.2608786E-2,-5.802351E-2,-1.1005681E-1,-2.7580062E-2,-7.676692E-2],"categories":[],"categories_nodes":[],"categories_segments":[],"categories_sizes":[],"default_left":[0,0,0,0,0,0,0,0,0,0,0,0,0,0,0,0,0,0,0,0,0,0,0,0,0,0,0,0,0,0,0,0,0,0,0,0,0,0,0,0,0,0,0,0,0,0,0,0,0,0,0,0,0],"id":16,"left_children":[1,3,5,7,9,11,-1,13,15,-1,-1,17,19,21,23,-1,25,27,29,31,-1,33,35,37,39,41,-1,43,-1,45,47,49,51,-1,-1,-1,-1,-1,-1,-1,-1,-1,-1,-1,-1,-1,-1,-1,-1,-1,-1,-1,-1],"loss_changes":[2.49824E3,1.4265634E3,1.9368518E2,1.3939034E3,3.5109497E1,9.6453125E1,0E0,7.3103406E2,3.447058E1,0E0,0E0,4.5372406E1,2.007019E1,5.863178E2,1.5036731E2,0E0,5.9124756E0,1.4778564E1,9.602844E0,1.5506897E0,0E0,6.5528894E2,3.2661853E2,2.7096596E0,1.8249512E-1,1.9447021E0,0E0,2.519577E0,0E0,4.8262672E0,1.9433472E1,1.4371033E0,3.757124E-1,0E0,0E0,0E0,0E0,0E0,0E0,0E0,0E0,0E0,0E0,0E0,0E0,0E0,0E0,0E0,0E0,0E0,0E0,0E0,0E0],"parents":[2147483647,0,0,1,1,2,2,3,3,4,4,5,5,7,7,8,8,11,11,12,12,13,13,14,14,16,16,17,17,18,18,19,19,21,21,22,22,23,23,24,24,25,25,27,27,29,29,30,30,31,31,32,32],"right_children":[2,4,6,8,10,12,-1,14,16,-1,-1,18,20,22,24,-1,26,28,30,32,-1,34,36,38,40,42,-1,44,-1,46,48,50,52,-1,-1,-1,-1,-1,-1,-1,-1,-1,-1,-1,-1,-1,-1,-1,-1,-1,-1,-1,-1],"split_conditions":[6.8894244E2,1.6572858E3,2E0,6E0,8E0,3.2E1,-1.11010276E-1,6.5987207E3,3E0,1.1112908E-1,-9.673171E-2,1E0,1.3003516E3,1E0,6E0,-2.9314363E-1,1.450125E3,1.0392305E2,3.6001205E-5,2E0,7.4301414E-2,6.2586E4,9.685805E-2,2.5655472E0,1.199149E3,1.55E2,-1.7570646E-2,1.6912516E4,5.671338E-2,8.559804E4,6.9856644E-5,3.179912E3,1.5091896E-4,-4.7045343E-2,1.05323665E-1,3.413812E-2,-9.0075485E-2,-1.1906548E-1,-3.297853E-2,1.1048321E-1,6.3897304E-2,-4.720303E-2,-1.11531116E-1,-1.1036142E-1,-7.14261E-2,7.403669E-2,-2.7161522E-2,-8.54687E-2,-4.2608786E-2,-5.802351E-2,-1.1005681E-1,-2.7580062E-2,-7.676692E-2],"split_indices":[5,25,16,32,9,30,0,2,24,0,0,17,11,16,13,0,25,11,0,18,0,23,6,4,4,0,0,7,0,5,0,5,0,0,0,0,0,0,0,0,0,0,0,0,0,0,0,0,0,0,0,0,0],"split_type":[0,0,0,0,0,0,0,0,0,0,0,0,0,0,0,0,0,0,0,0,0,0,0,0,0,0,0,0,0,0,0,0,0,0,0,0,0,0,0,0,0,0,0,0,0,0,0,0,0,0,0,0,0],"sum_hessian":[1.4675538E4,1.1348385E4,3.3271536E3,9.76543E3,1.5829554E3,2.2352654E3,1.0918882E3,8.891923E3,8.7350665E2,1.5755554E3,7.399999E0,1.8460848E3,3.891805E2,7.945852E3,9.460709E2,9.889655E0,8.63617E2,1.726418E2,1.6734431E3,3.837378E2,5.4427404E0,2.6535579E3,5.292294E3,3.2604298E1,9.134666E2,8.561257E2,7.4912796E0,1.6739734E2,5.244458E0,1.703893E1,1.6564042E3,3.7178763E2,1.1950152E1,2.3334705E3,3.2008746E2,5.072367E3,2.1992699E2,2.6910925E1,5.6933737E0,9.069572E2,6.509413E0,7.2925835E0,8.488331E2,1.3779073E2,2.9606619E1,9.227694E0,7.811238E0,1.1445781E2,1.5419463E3,9.787695E0,3.6199994E2,5.026137E0,6.9240155E0],"tree_param":{"num_deleted":"0","num_feature":"33","num_nodes":"53","size_leaf_vector":"1"}},{"base_weights":[-5.150812E-4,-3.7802476E-1,5.398847E-1,-6.235465E-1,8.6599606E-1,8.6101764E-1,-7.438114E-1,-9.089609E-1,-3.8979352E-1,1.086425E0,-1.0900598E-1,9.61218E-1,-1.0729033E0,-6.509874E-1,-1.0885101E-1,-8.180884E-1,-1.0473125E0,-2.6497276E-2,-6.5625036E-1,-2.385515E-2,1.09601974E-1,1.0447569E0,-7.005783E-2,-1.09519675E-1,-6.5864124E-3,-6.043641E-1,-7.68995E-1,-8.64478E-1,-5.5781054E-1,-1.0814809E0,-3.0727425E-1,-2.6021203E-1,9.626059E-1,-5.686135E-1,-1.1007424E-1,1.0624206E0,-9.515744E-1,-9.2883587E-1,1.2411797E-1,-6.096967E-1,-1.3133115E-2,-1.0598757E-1,-7.4020904E-1,-9.337938E-2,-6.572471E-2,-3.909351E-2,-1.00284435E-1,-1.0929089E-1,2.2354936E-2,1.0455697E-1,-1.0743765E-1,4.6662133E-2,-1.0853209E-1,1.05787136E-1,-1.1321666E-1,-3.2392804E-2,-7.8437135E-2,1.0752425E-1,-1.20048836E-1,-3.8926254E-3,-1.14145555E-1,-1.0672482E-1,4.7038116E-2,1.5623437E-1,7.717275E-3,-5.9660733E-2,-8.19688E-2,-7.7172E-2,-6.315008E-2],"categories":[],"categories_nodes":[],"categories_segments":[],"categories_sizes":[],"default_left":[0,0,0,0,0,0,0,0,0,0,0,0,0,0,0,0,0,0,0,0,0,0,0,0,0,0,0,0,0,0,0,0,0,0,0,0,0,0,0,0,0,0,0,0,0,0,0,0,0,0,0,0,0,0,0,0,0,0,0,0,0,0,0,0,0,0,0,0,0],"id":17,"left_children":[1,3,5,7,9,11,13,15,17,19,-1,21,23,25,-1,27,29,31,33,-1,-1,35,37,-1,-1,39,41,43,45,47,49,51,53,55,-1,57,59,61,63,65,-1,-1,67,-1,-1,-1,-1,-1,-1,-1,-1,-1,-1,-1,-1,-1,-1,-1,-1,-1,-1,-1,-1,-1,-1,-1,-1,-1,-1],"loss_changes":[2.870366E3,2.5306003E3,2.3860664E3,4.611162E2,5.9004956E2,8.980508E2,3.6181274E1,3.8109863E1,3.6830707E2,1.5958252E1,0E0,3.7938232E2,4.940613E0,4.434021E0,0E0,2.2131104E1,3.0645264E1,3.7268457E2,8.471875E1,0E0,0E0,1.4461133E2,5.533929E1,0E0,0E0,1.5141754E0,1.1701813E0,2.2172852E1,2.0874443E1,1.7866333E1,5.9071075E1,7.827703E2,6.267749E1,9.655878E1,0E0,1.184043E2,6.109268E0,1.2413307E1,1.7978569E1,1.1656799E0,0E0,0E0,1.794281E-1,0E0,0E0,0E0,0E0,0E0,0E0,0E0,0E0,0E0,0E0,0E0,0E0,0E0,0E0,0E0,0E0,0E0,0E0,0E0,0E0,0E0,0E0,0E0,0E0,0E0,0E0],"parents":[2147483647,0,0,1,1,2,2,3,3,4,4,5,5,6,6,7,7,8,8,9,9,11,11,12,12,13,13,15,15,16,16,17,17,18,18,21,21,22,22,25,25,26,26,27,27,28,28,29,29,30,30,31,31,32,32,33,33,35,35,36,36,37,37,38,38,39,39,42,42],"right_children":[2,4,6,8,10,12,14,16,18,20,-1,22,24,26,-1,28,30,32,34,-1,-1,36,38,-1,-1,40,42,44,46,48,50,52,54,56,-1,58,60,62,64,66,-1,-1,68,-1,-1,-1,-1,-1,-1,-1,-1,-1,-1,-1,-1,-1,-1,-1,-1,-1,-1,-1,-1,-1,-1,-1,-1,-1,-1],"split_conditions":[8.192E3,2.0214188E4,6.5535E4,1E0,8E0,3.6E1,2E0,6.258563E-2,9.54E2,2E1,-1.0900598E-1,1E0,7E0,9.894371E-5,-1.0885101E-1,1E0,5.3598694E2,1.1673212E-2,2E0,-2.385515E-2,1.09601974E-1,2E0,6.769852E-1,-1.09519675E-1,-6.5864124E-3,9.7990036E-5,2.647043E2,1.025E3,1.028E3,2.7426315E2,8E0,1E0,8.5714287E-1,1.025E3,-1.1007424E-1,2.015907E6,1E-4,6.5E0,3.9835843E-1,2.8276207E4,-1.3133115E-2,-1.0598757E-1,1.9001961E-4,-9.337938E-2,-6.572471E-2,-3.909351E-2,-1.00284435E-1,-1.0929089E-1,2.2354936E-2,1.0455697E-1,-1.0743765E-1,4.6662133E-2,-1.0853209E-1,1.05787136E-1,-1.1321666E-1,-3.2392804E-2,-7.8437135E-2,1.0752425E-1,-1.20048836E-1,-3.8926254E-3,-1.14145555E-1,-1.0672482E-1,4.7038116E-2,1.5623437E-1,7.717275E-3,-5.9660733E-2,-8.19688E-2,-7.7172E-2,-6.315008E-2],"split_indices":[22,2,22,17,24,31,16,6,22,31,0,18,18,0,0,18,2,0,16,0,0,16,8,0,0,0,7,22,22,25,14,18,8,22,0,0,1,24,5,5,0,0,0,0,0,0,0,0,0,0,0,0,0,0,0,0,0,0,0,0,0,0,0,0,0,0,0,0,0],"split_type":[0,0,0,0,0,0,0,0,0,0,0,0,0,0,0,0,0,0,0,0,0,0,0,0,0,0,0,0,0,0,0,0,0,0,0,0,0,0,0,0,0,0,0,0,0,0,0,0,0,0,0,0,0,0,0,0,0,0,0,0,0,0,0,0,0,0,0,0,0],"sum_hessian":[1.4068077E4,8.282568E3,5.785509E3,6.917834E3,1.3647346E3,4.62813E3,1.1573787E3,3.1132334E3,3.8046006E3,1.2269633E3,1.377714E2,4.400677E3,2.2745326E2,9.1433563E2,2.4304305E2,1.8836469E3,1.2295864E3,1.6104009E3,2.1941997E3,8.574706E0,1.2183885E3,4.0709885E3,3.296881E2,2.2234425E2,5.1090026E0,6.6039197E2,2.5394362E2,1.5964114E3,2.872354E2,1.1747505E3,5.4835964E1,1.303286E3,3.0711487E2,1.8349266E3,3.5927316E2,4.0357974E3,3.5191204E1,6.0195225E1,2.694929E2,6.525355E2,7.856482E0,1.9329239E1,2.3461438E2,1.1932856E3,4.0312576E2,2.1043224E2,7.680317E1,1.1647897E3,9.960811E0,1.9663858E1,3.5172108E1,6.9307434E2,6.102116E2,2.9427466E2,1.2840211E1,8.6121216E2,9.737145E2,4.0136248E3,2.2172556E1,6.358972E0,2.8832232E1,5.505758E1,5.1376424E0,7.4307985E0,2.6206207E2,6.183115E2,3.422399E1,1.7644887E2,5.8165524E1],"tree_param":{"num_deleted":"0","num_feature":"33","num_nodes":"69","size_leaf_vector":"1"}},{"base_weights":[-4.728234E-4,-3.6723414E-1,5.289296E-1,9.1178425E-2,-7.4503267E-1,8.3889997E-1,-6.844347E-1,-3.828986E-1,1.0251888E0,-8.3806765E-1,-4.852031E-1,9.3736887E-1,-1.0605203E0,-5.890397E-1,-1.068398E0,-4.1347947E-2,-1.0722724E0,1.0589641E0,-8.360181E-1,-7.6364964E-1,-1.0952081E-1,-3.1828237E-1,-9.914198E-1,1.0254487E0,-8.240546E-2,-1.08407535E-1,-5.6035533E-3,-1.03012204E-1,-5.801305E-1,-4.3085046E-2,-1.0820098E-1,-2.3266564E-1,7.439208E-1,-1.0882581E0,-3.5515798E-3,7.772015E-2,1.0851016E0,-1.0821175E-1,-1.307963E-3,-8.61952E-1,-6.634981E-1,-2.202337E-1,-1.0427177E0,-1.0902593E0,6.6077724E-2,1.0432518E0,-9.6672934E-1,-9.837141E-1,1.0779677E-1,-5.6910765E-1,-8.435026E-2,3.7954148E-2,-1.0275362E-1,1.06122926E-1,-9.1874056E-2,-1.09382026E-1,-6.7229316E-2,5.204307E-2,-5.8773696E-2,-5.7053864E-2,2.9296347E-1,1.0927385E-1,6.417888E-2,-4.798835E-2,-8.974886E-2,-6.0878377E-2,-6.936725E-2,-1.9704288E-2,-8.404405E-2,-2.8194059E-2,-1.09465934E-1,-1.1086724E-1,-2.695891E-2,1.01190425E-1,-1.0159898E-1,1.0507802E-1,-1.1395712E-1,-1.3588265E-2,-1.1682395E-1,-1.1299296E-1,-1.8164849E-2,2.568076E-2,-2.9348006E-2,-5.7267047E-2,-0E0],"categories":[],"categories_nodes":[],"categories_segments":[],"categories_sizes":[],"default_left":[0,0,0,0,0,0,0,0,0,0,0,0,0,0,0,0,0,0,0,0,0,0,0,0,0,0,0,0,0,0,0,0,0,0,0,0,0,0,0,0,0,0,0,0,0,0,0,0,0,0,0,0,0,0,0,0,0,0,0,0,0,0,0,0,0,0,0,0,0,0,0,0,0,0,0,0,0,0,0,0,0,0,0,0,0],"id":18,"left_children":[1,3,5,7,9,11,13,15,17,19,21,23,25,27,29,31,33,35,37,39,-1,41,43,45,47,-1,-1,-1,49,-1,-1,51,53,55,57,59,61,-1,-1,63,65,67,69,71,73,75,77,79,81,83,-1,-1,-1,-1,-1,-1,-1,-1,-1,-1,-1,-1,-1,-1,-1,-1,-1,-1,-1,-1,-1,-1,-1,-1,-1,-1,-1,-1,-1,-1,-1,-1,-1,-1,-1],"loss_changes":[2.563107E3,1.3507169E3,2.0324727E3,1.5608884E3,1.02809326E2,8.059065E2,3.9487732E1,5.5039624E2,7.551526E1,5.918799E1,9.5025635E1,3.6773755E2,4.8538513E0,2.712616E0,1.2693787E0,2.351964E2,1.3119385E1,2.9708374E1,4.262926E0,2.3335327E1,0E0,6.0112923E1,2.9394623E1,1.3461768E2,5.611051E1,0E0,0E0,0E0,1.8996887E0,0E0,0E0,6.131331E2,1.6278018E2,8.532715E-1,4.1419744E0,6.002163E1,2.970337E0,0E0,0E0,1.6124512E1,1.4540405E0,1.0535515E1,3.5486298E0,3.428772E0,2.6360079E1,6.255127E1,5.375511E0,6.3516006E0,1.6225124E1,1.743866E0,0E0,0E0,0E0,0E0,0E0,0E0,0E0,0E0,0E0,0E0,0E0,0E0,0E0,0E0,0E0,0E0,0E0,0E0,0E0,0E0,0E0,0E0,0E0,0E0,0E0,0E0,0E0,0E0,0E0,0E0,0E0,0E0,0E0,0E0,0E0],"parents":[2147483647,0,0,1,1,2,2,3,3,4,4,5,5,6,6,7,7,8,8,9,9,10,10,11,11,12,12,13,13,14,14,15,15,16,16,17,17,18,18,19,19,21,21,22,22,23,23,24,24,28,28,31,31,32,32,33,33,34,34,35,35,36,36,39,39,40,40,41,41,42,42,43,43,44,44,45,45,46,46,47,47,48,48,49,49],"right_children":[2,4,6,8,10,12,14,16,18,20,22,24,26,28,30,32,34,36,38,40,-1,42,44,46,48,-1,-1,-1,50,-1,-1,52,54,56,58,60,62,-1,-1,64,66,68,70,72,74,76,78,80,82,84,-1,-1,-1,-1,-1,-1,-1,-1,-1,-1,-1,-1,-1,-1,-1,-1,-1,-1,-1,-1,-1,-1,-1,-1,-1,-1,-1,-1,-1,-1,-1,-1,-1,-1,-1],"split_conditions":[8.192E3,2.85E2,6.5535E4,2.56E2,5.5E-1,3.6E1,2E0,5.3290796E-2,2.37E2,7.020579E-2,1.025E3,1E0,5E0,1E0,6.896552E3,6.2586E4,2E0,2E1,3.4984824E2,1.025E3,-1.0952081E-1,1.48E2,1.2E3,2E0,6.769852E-1,-1.08407535E-1,-5.6035533E-3,-1.03012204E-1,1.426634E4,-4.3085046E-2,-1.0820098E-1,1E0,6.2617E4,1E0,2.015E2,1.0591677E3,7.142857E0,-1.0821175E-1,-1.307963E-3,1E0,1.028E3,1.5650388E4,4.7221227E0,2E0,3E1,2.37E2,3E0,2E0,2.55E2,1.3888424E4,-8.435026E-2,3.7954148E-2,-1.0275362E-1,1.06122926E-1,-9.1874056E-2,-1.09382026E-1,-6.7229316E-2,5.204307E-2,-5.8773696E-2,-5.7053864E-2,2.9296347E-1,1.0927385E-1,6.417888E-2,-4.798835E-2,-8.974886E-2,-6.0878377E-2,-6.936725E-2,-1.9704288E-2,-8.404405E-2,-2.8194059E-2,-1.09465934E-1,-1.1086724E-1,-2.695891E-2,1.01190425E-1,-1.0159898E-1,1.0507802E-1,-1.1395712E-1,-1.3588265E-2,-1.1682395E-1,-1.1299296E-1,-1.8164849E-2,2.568076E-2,-2.9348006E-2,-5.7267047E-2,-0E0],"split_indices":[22,22,22,22,8,31,16,6,23,6,22,18,18,16,6,23,18,31,4,22,0,23,22,16,8,0,0,0,6,0,0,18,23,15,24,7,24,0,0,16,22,7,6,18,23,23,16,18,23,6,0,0,0,0,0,0,0,0,0,0,0,0,0,0,0,0,0,0,0,0,0,0,0,0,0,0,0,0,0,0,0,0,0,0,0],"split_type":[0,0,0,0,0,0,0,0,0,0,0,0,0,0,0,0,0,0,0,0,0,0,0,0,0,0,0,0,0,0,0,0,0,0,0,0,0,0,0,0,0,0,0,0,0,0,0,0,0,0,0,0,0,0,0,0,0,0,0,0,0,0,0,0,0,0,0,0,0,0,0,0,0,0,0,0,0,0,0,0,0,0,0,0,0],"sum_hessian":[1.3198793E4,7.7973867E3,5.4014067E3,3.523067E3,4.27432E3,4.302632E3,1.0987747E3,2.3372358E3,1.1858313E3,3.1454458E3,1.1288738E3,4.091102E3,2.1153E2,8.8235065E2,2.1642398E2,1.5637031E3,7.735326E2,1.1651716E3,2.0659584E1,2.4428335E3,7.026124E2,8.5031555E2,2.785582E2,3.7659248E3,3.251773E2,2.0650859E2,5.0213985E0,1.4977628E1,8.6737305E2,5.36024E0,2.1106374E2,1.2580349E3,3.0566824E2,7.620225E2,1.1510072E1,3.0433859E1,1.1347378E3,1.5567632E1,5.091952E0,1.2284553E3,1.214378E3,7.5021924E2,1.0009634E2,2.5480617E2,2.3752016E1,3.7330903E3,3.283424E1,5.6028706E1,2.6914862E2,8.3592773E2,3.1445326E1,7.1089905E2,5.471358E2,2.5703635E2,4.8631893E1,7.501223E2,1.19002285E1,6.034981E0,5.4750905E0,2.5420496E1,5.0133634E0,1.1138588E3,2.0879013E1,1.06010544E2,1.1224447E3,4.4036536E2,7.7401276E2,7.2460376E2,2.5615503E1,6.931117E0,9.316522E1,2.4875223E2,6.053936E0,1.27577915E1,1.09942255E1,3.720822E3,1.2268427E1,6.8327403E0,2.60015E1,4.693844E1,9.090267E0,1.9671089E2,7.243772E1,8.3086383E2,5.063876E0],"tree_param":{"num_deleted":"0","num_feature":"33","num_nodes":"85","size_leaf_vector":"1"}},{"base_weights":[2.6152246E-3,-3.4664288E-1,5.108959E-1,-5.4376435E-1,5.9359586E-1,8.2263404E-1,-6.537674E-1,-6.077732E-1,6.62829E-1,-1.07858196E-1,1.0566242E0,9.16847E-1,-1.0576115E0,-5.948735E-1,-1.04636274E-1,-8.053222E-1,-4.4593713E-1,9.996277E-1,-1.0664542E-1,1.07581615E-1,-9.620121E-2,1.0094038E0,-7.127204E-2,-3.5986267E-2,-1.07440494E-1,-5.486121E-1,-1.0196795E0,-8.731594E-1,-5.3144515E-1,-1.7907697E-1,-6.731979E-1,1.0595584E0,2.6178247E-1,1.023025E0,-1.1822122E-1,-8.4096617E-1,8.7356895E-2,-5.0585955E-1,-6.3768893E-1,-1.06708646E-1,-2.1757783E-2,-7.780031E-2,-1.0812403E-1,-6.863696E-2,4.6083316E-2,3.75698E-2,-6.940928E-2,-1.06207505E-1,-4.097835E-2,1.081965E-1,6.0621567E-2,-1.0788894E-2,6.809245E-2,8.1927024E-2,1.09612845E-1,-9.739485E-2,3.2480575E-2,2.0534663E-2,-4.8766483E-2,-5.265032E-2,-3.979225E-2,-5.8967073E-2,-7.050311E-2],"categories":[],"categories_nodes":[],"categories_segments":[],"categories_sizes":[],"default_left":[0,0,0,0,0,0,0,0,0,0,0,0,0,0,0,0,0,0,0,0,0,0,0,0,0,0,0,0,0,0,0,0,0,0,0,0,0,0,0,0,0,0,0,0,0,0,0,0,0,0,0,0,0,0,0,0,0,0,0,0,0,0,0],"id":19,"left_children":[1,3,5,7,9,11,13,15,17,-1,19,21,23,25,-1,27,29,31,-1,-1,-1,33,35,-1,-1,37,39,41,43,45,47,49,51,53,-1,55,57,59,61,-1,-1,-1,-1,-1,-1,-1,-1,-1,-1,-1,-1,-1,-1,-1,-1,-1,-1,-1,-1,-1,-1,-1,-1],"loss_changes":[2.1945078E3,1.3583157E3,1.8285565E3,4.682527E2,9.846646E2,7.0461646E2,2.3805115E1,1.8344775E2,1.7902902E2,0E0,3.9608154E1,3.461765E2,1.695755E0,1.750882E1,0E0,4.7500732E1,1.9173901E2,1.0924957E1,0E0,0E0,0E0,1.04466064E2,3.981424E1,0E0,0E0,2.7570038E0,3.0501175E0,4.002588E1,7.979472E1,4.1664716E2,1.7445337E2,1.5787659E0,3.3395143E0,5.0129883E1,0E0,9.0185585E0,1.8401123E1,9.7325134E-1,3.1945038E-1,0E0,0E0,0E0,0E0,0E0,0E0,0E0,0E0,0E0,0E0,0E0,0E0,0E0,0E0,0E0,0E0,0E0,0E0,0E0,0E0,0E0,0E0,0E0,0E0],"parents":[2147483647,0,0,1,1,2,2,3,3,4,4,5,5,6,6,7,7,8,8,10,10,11,11,12,12,13,13,15,15,16,16,17,17,21,21,22,22,25,25,26,26,27,27,28,28,29,29,30,30,31,31,32,32,33,33,35,35,36,36,37,37,38,38],"right_children":[2,4,6,8,10,12,14,16,18,-1,20,22,24,26,-1,28,30,32,-1,-1,-1,34,36,-1,-1,38,40,42,44,46,48,50,52,54,-1,56,58,60,62,-1,-1,-1,-1,-1,-1,-1,-1,-1,-1,-1,-1,-1,-1,-1,-1,-1,-1,-1,-1,-1,-1,-1,-1],"split_conditions":[8.192E3,2.5486566E5,6.5535E4,6.2586E4,2.56E2,3.6E1,3.1775031E4,1E0,6.5392E4,-1.07858196E-1,6.4E1,1E0,1.09E2,1E-4,-1.04636274E-1,1E0,1E0,6.2617E4,-1.0664542E-1,1.07581615E-1,-9.620121E-2,2.015907E6,6.769852E-1,-3.5986267E-2,-1.07440494E-1,9.2983246E-5,5.07E3,1.22532375E-1,5.5487124E3,1.19E2,6.9856644E-5,1.13217115E-1,1.12E2,6.424E4,-1.1822122E-1,1.8E1,1.3513514E4,7.7962875E-5,1.826484E4,-1.06708646E-1,-2.1757783E-2,-7.780031E-2,-1.0812403E-1,-6.863696E-2,4.6083316E-2,3.75698E-2,-6.940928E-2,-1.06207505E-1,-4.097835E-2,1.081965E-1,6.0621567E-2,-1.0788894E-2,6.809245E-2,8.1927024E-2,1.09612845E-1,-9.739485E-2,3.2480575E-2,2.0534663E-2,-4.8766483E-2,-5.265032E-2,-3.979225E-2,-5.8967073E-2,-7.050311E-2],"split_indices":[22,1,22,23,22,31,5,17,23,0,31,18,0,1,0,18,18,23,0,0,0,0,8,0,0,0,23,5,1,22,0,0,10,22,0,12,7,0,5,0,0,0,0,0,0,0,0,0,0,0,0,0,0,0,0,0,0,0,0,0,0,0,0],"split_type":[0,0,0,0,0,0,0,0,0,0,0,0,0,0,0,0,0,0,0,0,0,0,0,0,0,0,0,0,0,0,0,0,0,0,0,0,0,0,0,0,0,0,0,0,0,0,0,0,0,0,0,0,0,0,0,0,0,0,0,0,0,0,0],"sum_hessian":[1.2359861E4,7.326013E3,5.0338477E3,6.056742E3,1.2692708E3,3.9712642E3,1.0625837E3,5.7521733E3,3.045691E2,2.749115E2,9.9435925E2,3.7823105E3,1.889537E2,9.2638495E2,1.3619872E2,2.588214E3,3.163959E3,2.5532185E2,4.9247234E1,9.855062E2,8.853028E0,3.458439E3,3.2387137E2,5.107972E0,1.8384573E2,8.3768756E2,8.8697426E1,2.0723545E3,5.158597E2,1.4562227E3,1.7077365E3,2.356129E2,1.9708963E1,3.4376523E3,2.078662E1,5.4714825E1,2.6915656E2,5.712952E2,2.6639233E2,8.331801E1,5.3794117E0,1.4256277E3,6.467267E2,4.4654904E2,6.931065E1,7.010876E2,7.551351E2,6.8825635E2,1.0194801E3,2.2298463E2,1.2628261E1,1.0740319E1,8.968645E0,9.1128424E2,2.5263682E3,4.9337147E1,5.3776765E0,2.2400862E2,4.5147926E1,4.755408E2,9.575442E1,1.6206995E2,1.0432238E2],"tree_param":{"num_deleted":"0","num_feature":"33","num_nodes":"63","size_leaf_vector":"1"}},{"base_weights":[2.3764018E-3,-3.3810177E-1,5.022597E-1,-5.452503E-1,8.509925E-1,8.01503E-1,-5.8787054E-1,-6.0521656E-1,6.42447E-1,1.0606031E0,-1.0596106E-1,8.929677E-1,-1.0415541E0,-5.2315205E-1,-1.0284E-1,-8.1908226E-1,-4.237522E-1,9.643292E-1,-1.0561927E-1,-0E0,1.0681967E-1,9.642927E-1,-9.522017E-2,-2.0366099E-2,-1.065796E-1,-4.728093E-1,-1.0476978E-1,-7.111526E-1,-9.992857E-1,-1.9932093E-1,-6.1627024E-1,1.0549606E0,2.2185513E-1,9.92162E-1,-3.4432352E-1,-1.0087469E0,3.895168E-2,-4.3059033E-1,-5.618521E-1,-7.753376E-2,-5.5570383E-2,-1.04183435E-1,-2.3974812E-2,2.6963606E-2,-6.5818496E-2,-9.5652826E-2,-3.5964295E-2,1.07497886E-1,3.7861854E-2,4.369127E-2,-1.9837847E-2,7.6113164E-2,1.07998155E-1,1.2964271E-2,-9.597348E-2,-5.1330335E-2,-1.0934272E-1,-9.977383E-3,7.317876E-2,-4.5355026E-2,-3.0479545E-2,-1.732285E-2,-5.6849755E-2],"categories":[],"categories_nodes":[],"categories_segments":[],"categories_sizes":[],"default_left":[0,0,0,0,0,0,0,0,0,0,0,0,0,0,0,0,0,0,0,0,0,0,0,0,0,0,0,0,0,0,0,0,0,0,0,0,0,0,0,0,0,0,0,0,0,0,0,0,0,0,0,0,0,0,0,0,0,0,0,0,0,0,0],"id":20,"left_children":[1,3,5,7,9,11,13,15,17,19,-1,21,23,25,-1,27,29,31,-1,-1,-1,33,35,-1,-1,37,-1,39,41,43,45,47,49,51,53,55,57,59,61,-1,-1,-1,-1,-1,-1,-1,-1,-1,-1,-1,-1,-1,-1,-1,-1,-1,-1,-1,-1,-1,-1,-1,-1],"loss_changes":[1.9769698E3,1.7023254E3,1.5357296E3,4.1951843E2,4.1177557E2,6.2347705E2,2.8220154E1,2.1696216E2,1.5587964E2,7.4067383E0,0E0,2.4821167E2,3.211029E0,2.2761475E1,0E0,4.9110718E1,1.308534E2,1.5700638E1,0E0,0E0,0E0,1.201145E2,2.9272882E1,0E0,0E0,2.7069702E0,0E0,1.5513611E1,3.0647095E1,3.0196524E2,1.4202881E2,2.3226318E0,2.5826068E0,6.420776E1,2.036673E1,5.6082726E-1,2.0141356E1,1.3891144E0,4.9043274E-1,0E0,0E0,0E0,0E0,0E0,0E0,0E0,0E0,0E0,0E0,0E0,0E0,0E0,0E0,0E0,0E0,0E0,0E0,0E0,0E0,0E0,0E0,0E0,0E0],"parents":[2147483647,0,0,1,1,2,2,3,3,4,4,5,5,6,6,7,7,8,8,9,9,11,11,12,12,13,13,15,15,16,16,17,17,21,21,22,22,25,25,27,27,28,28,29,29,30,30,31,31,32,32,33,33,34,34,35,35,36,36,37,37,38,38],"right_children":[2,4,6,8,10,12,14,16,18,20,-1,22,24,26,-1,28,30,32,-1,-1,-1,34,36,-1,-1,38,-1,40,42,44,46,48,50,52,54,56,58,60,62,-1,-1,-1,-1,-1,-1,-1,-1,-1,-1,-1,-1,-1,-1,-1,-1,-1,-1,-1,-1,-1,-1,-1,-1],"split_conditions":[8.192E3,2.68941E4,6.5535E4,6.2586E4,8E0,3.6E1,1.5505745E4,1E0,6.5392E4,2E1,-1.0596106E-1,4.1701172E2,1.09E2,1E-4,-1.0284E-1,7.020579E-2,1E0,1.13217115E-1,-1.0561927E-1,-0E0,1.0681967E-1,2.53E2,1E0,-2.0366099E-2,-1.065796E-1,9.2983246E-5,-1.0476978E-1,1.025E3,5.3598694E2,1.19E2,7.605553E-5,6.2617E4,1.6610447E1,6.424E4,2.888E4,6.5359478E3,6.424E4,7.891655E-5,9.269559E1,-7.753376E-2,-5.5570383E-2,-1.04183435E-1,-2.3974812E-2,2.6963606E-2,-6.5818496E-2,-9.5652826E-2,-3.5964295E-2,1.07497886E-1,3.7861854E-2,4.369127E-2,-1.9837847E-2,7.6113164E-2,1.07998155E-1,1.2964271E-2,-9.597348E-2,-5.1330335E-2,-1.0934272E-1,-9.977383E-3,7.317876E-2,-4.5355026E-2,-3.0479545E-2,-1.732285E-2,-5.6849755E-2],"split_indices":[22,2,22,23,24,31,6,17,23,31,0,6,0,2,0,6,9,0,0,0,0,23,17,0,0,0,0,22,2,22,0,23,7,22,22,6,22,0,7,0,0,0,0,0,0,0,0,0,0,0,0,0,0,0,0,0,0,0,0,0,0,0,0],"split_type":[0,0,0,0,0,0,0,0,0,0,0,0,0,0,0,0,0,0,0,0,0,0,0,0,0,0,0,0,0,0,0,0,0,0,0,0,0,0,0,0,0,0,0,0,0,0,0,0,0,0,0,0,0,0,0,0,0,0,0,0,0,0,0],"sum_hessian":[1.161352E4,6.9082964E3,4.7052236E3,5.883905E3,1.0243917E3,3.6920918E3,1.0131316E3,5.6016543E3,2.8225006E2,9.235654E2,1.0082637E2,3.5180715E3,1.7402028E2,8.854623E2,1.2766931E2,2.569405E3,3.0322495E3,2.3769872E2,4.455134E1,6.6069684E0,9.1695844E2,3.2813567E3,2.3671487E2,5.27354E0,1.6874675E2,8.098315E2,7.563078E1,1.6103915E3,9.5901355E2,1.4012605E3,1.630989E3,2.1134497E2,2.6353752E1,3.2132432E3,6.811345E1,2.9575203E1,2.0713968E2,5.5407837E2,2.5575313E2,1.1364991E3,4.738923E2,9.076637E2,5.1349827E1,6.9310486E2,7.0815564E2,6.998939E2,9.310951E2,2.0455336E2,6.7916026E0,1.7563684E1,8.790068E0,8.879871E2,2.325256E3,3.8832775E1,2.9280674E1,5.520234E0,2.405497E1,1.7317647E2,3.3963207E1,4.6568225E2,8.839613E1,5.0078735E0,2.5074525E2],"tree_param":{"num_deleted":"0","num_feature":"33","num_nodes":"63","size_leaf_vector":"1"}},{"base_weights":[6.0906857E-3,-3.1262815E-1,4.8204738E-1,-5.0811315E-1,8.40267E-1,7.805994E-1,-5.812532E-1,-5.640154E-1,6.1213547E-1,1.0479704E0,-1.0526717E-1,8.7004274E-1,-1.0324643E0,-4.8649904E-1,-1.0258697E0,-7.8157234E-1,-3.8571128E-1,9.197975E-1,-1.0462476E-1,-4.9348757E-2,1.058281E-1,9.4323885E-1,-3.4271706E-2,-2.0149251E-2,-1.0583029E-1,-4.38483E-1,-6.194535E-1,-1.0570382E-1,-4.453876E-3,-6.630887E-1,-9.876674E-1,-3.1765178E-1,-1.0695642E-1,1.0214233E0,1.5053485E-1,9.755848E-1,-2.9086873E-1,-1.0432278E-1,1.0170547E-1,-4.4846404E-1,-3.6542688E-2,-9.555181E-2,-5.8653694E-1,-6.6938035E-2,9.2780344E-2,-1.0403191E-1,-2.835694E-2,-1.8044349E-2,-6.424829E-2,2.1634068E-2,1.06796876E-1,3.415589E-2,-2.3736335E-2,9.899346E-2,-1.168941E-1,3.353479E-2,-8.9272514E-2,2.128732E-2,-9.75528E-2,-4.3123882E-2,-6.626945E-2,-8.616373E-3,1.1010094E-3,-5.530482E-2,-9.278091E-2],"categories":[],"categories_nodes":[],"categories_segments":[],"categories_sizes":[],"default_left":[0,0,0,0,0,0,0,0,0,0,0,0,0,0,0,0,0,0,0,0,0,0,0,0,0,0,0,0,0,0,0,0,0,0,0,0,0,0,0,0,0,0,0,0,0,0,0,0,0,0,0,0,0,0,0,0,0,0,0,0,0,0,0,0,0],"id":21,"left_children":[1,3,5,7,9,11,13,15,17,19,-1,21,23,25,27,29,31,33,-1,-1,-1,35,37,-1,-1,39,41,-1,-1,43,45,47,-1,49,51,53,55,-1,57,59,61,-1,63,-1,-1,-1,-1,-1,-1,-1,-1,-1,-1,-1,-1,-1,-1,-1,-1,-1,-1,-1,-1,-1,-1],"loss_changes":[1.6585857E3,1.4762073E3,1.3925537E3,3.510149E2,3.7448022E2,5.5619556E2,3.98714E1,2.0649805E2,1.3694643E2,1.4188232E1,0E0,2.1617163E2,3.1261292E0,4.6975555E0,4.9777527E0,5.7818604E1,1.3606534E2,1.7351425E1,0E0,0E0,0E0,1.2089307E2,3.3849735E1,0E0,0E0,2.294075E0,1.5856781E0,0E0,0E0,1.5890686E1,3.19823E1,1.1879089E2,0E0,7.091049E0,2.1360033E0,9.1701416E1,2.968329E1,0E0,2.6113419E1,1.7208862E0,4.522507E-2,0E0,1.5360489E0,0E0,0E0,0E0,0E0,0E0,0E0,0E0,0E0,0E0,0E0,0E0,0E0,0E0,0E0,0E0,0E0,0E0,0E0,0E0,0E0,0E0,0E0],"parents":[2147483647,0,0,1,1,2,2,3,3,4,4,5,5,6,6,7,7,8,8,9,9,11,11,12,12,13,13,14,14,15,15,16,16,17,17,21,21,22,22,25,25,26,26,29,29,30,30,31,31,33,33,34,34,35,35,36,36,38,38,39,39,40,40,42,42],"right_children":[2,4,6,8,10,12,14,16,18,20,-1,22,24,26,28,30,32,34,-1,-1,-1,36,38,-1,-1,40,42,-1,-1,44,46,48,-1,50,52,54,56,-1,58,60,62,-1,64,-1,-1,-1,-1,-1,-1,-1,-1,-1,-1,-1,-1,-1,-1,-1,-1,-1,-1,-1,-1,-1,-1],"split_conditions":[8.192E3,2.0214188E4,6.5535E4,3.9096E4,8E0,3.6E1,2E0,1E0,6.5392E4,6E0,-1.0526717E-1,2.6123303E2,6.8E1,9.894371E-5,8.587837E-4,4.4402248E-1,2E0,1.13217115E-1,-1.0462476E-1,-4.9348757E-2,1.058281E-1,2E0,5.069638E-1,-2.0149251E-2,-1.0583029E-1,9.608269E-5,3.310893E2,-1.0570382E-1,-4.453876E-3,7.704E3,4.682E-1,1.025E3,-1.0695642E-1,1.05918884E-1,1.6610447E1,2.015907E6,4.682E-1,-1.0432278E-1,2.37E2,2.6845637E4,9.7990036E-5,-9.555181E-2,1.9831225E4,-6.6938035E-2,9.2780344E-2,-1.0403191E-1,-2.835694E-2,-1.8044349E-2,-6.424829E-2,2.1634068E-2,1.06796876E-1,3.415589E-2,-2.3736335E-2,9.899346E-2,-1.168941E-1,3.353479E-2,-8.9272514E-2,2.128732E-2,-9.75528E-2,-4.3123882E-2,-6.626945E-2,-8.616373E-3,1.1010094E-3,-5.530482E-2,-9.278091E-2],"split_indices":[22,2,22,23,24,31,16,17,23,10,0,6,0,0,0,5,16,0,0,0,0,16,8,0,0,0,7,0,0,23,2,22,0,0,7,0,2,0,23,5,0,0,5,0,0,0,0,0,0,0,0,0,0,0,0,0,0,0,0,0,0,0,0,0,0],"split_type":[0,0,0,0,0,0,0,0,0,0,0,0,0,0,0,0,0,0,0,0,0,0,0,0,0,0,0,0,0,0,0,0,0,0,0,0,0,0,0,0,0,0,0,0,0,0,0,0,0,0,0,0,0,0,0,0,0,0,0,0,0,0,0,0,0],"sum_hessian":[1.0931483E4,6.5472964E3,4.384187E3,5.598637E3,9.486593E2,3.423345E3,9.608421E2,5.3330923E3,2.655445E2,8.553093E2,9.334995E1,3.2629502E3,1.6039484E2,7.939575E2,1.6688458E2,2.40036E3,2.9327324E3,2.2441658E2,4.1127934E1,5.307164E0,8.500022E2,3.0186826E3,2.4426755E2,5.219031E0,1.551758E2,5.870108E2,2.0694675E2,1.6157373E2,5.3108535E0,1.5271224E3,8.732376E2,2.6687405E3,2.6399197E2,1.9782455E2,2.6592018E1,2.9418667E3,7.6815765E1,2.8305195E1,2.1596236E2,5.724316E2,1.4579229E1,1.5690144E1,1.9125659E2,1.5217463E3,5.376087E0,8.119047E2,6.1332897E1,1.8775353E3,7.912052E2,1.123814E1,1.8658643E2,1.8070364E1,8.521654E0,2.9228938E3,1.8973082E1,3.7781605E1,3.903416E1,1.9657187E2,1.939049E1,5.3305133E2,3.9380222E1,7.7662063E0,6.8130226E0,1.7681906E2,1.4437544E1],"tree_param":{"num_deleted":"0","num_feature":"33","num_nodes":"65","size_leaf_vector":"1"}},{"base_weights":[5.5899713E-3,-2.9844543E-1,4.664282E-1,-4.5972958E-1,5.7781476E-1,7.616306E-1,-5.38295E-1,-5.112843E-1,6.1734235E-1,-1.0537262E-1,1.0325134E0,8.494949E-1,-1.0169994E0,-4.4048795E-1,-1.0234268E0,-7.238946E-1,-3.5145354E-1,9.361141E-1,-1.03619754E-1,1.05446175E-1,-9.318053E-2,9.258927E-1,-5.54451E-2,-2.589782E-2,-1.0501553E-1,-4.2384878E-1,-7.422049E-2,-2.5376841E-2,-1.0499493E-1,-6.466533E-1,-1.00452E0,-2.802934E-1,-1.0085275E0,1.024602E0,1.306485E-1,9.595565E-1,-2.569122E-1,-1.0293609E-1,6.88749E-2,-9.75104E-2,-4.1412145E-1,-6.021393E-2,-1.0278229E-1,-1.0444224E-1,-4.3639343E-2,-1.5067781E-2,-5.945244E-2,-8.7248205E-5,-1.02861695E-1,6.838682E-2,1.0520651E-1,-2.0292465E-2,6.538615E-2,6.857436E-2,1.0665206E-1,5.6064565E-2,-8.0281086E-2,1.7876064E-2,-1.002929E-1,-4.211901E-2,-2.6029265E-2],"categories":[],"categories_nodes":[],"categories_segments":[],"categories_sizes":[],"default_left":[0,0,0,0,0,0,0,0,0,0,0,0,0,0,0,0,0,0,0,0,0,0,0,0,0,0,0,0,0,0,0,0,0,0,0,0,0,0,0,0,0,0,0,0,0,0,0,0,0,0,0,0,0,0,0,0,0,0,0,0,0],"id":22,"left_children":[1,3,5,7,9,11,13,15,17,-1,19,21,23,25,27,29,31,33,-1,-1,-1,35,37,-1,-1,39,-1,-1,-1,41,43,45,47,49,51,53,55,-1,57,-1,59,-1,-1,-1,-1,-1,-1,-1,-1,-1,-1,-1,-1,-1,-1,-1,-1,-1,-1,-1,-1],"loss_changes":[1.4438989E3,8.77728E2,1.2154237E3,2.9151282E2,7.173484E2,4.9572754E2,4.3567566E1,1.6973022E2,1.27422806E2,0E0,3.3572083E1,2.0880249E2,3.3537598E0,3.4672852E0,2.772171E0,4.5719727E1,1.3329526E2,1.4128006E1,0E0,0E0,0E0,1.11144775E2,2.8718182E1,0E0,0E0,3.4177856E0,0E0,0E0,0E0,2.7834412E1,9.853241E0,1.0498564E2,5.542053E0,8.0529785E-1,3.8822224E0,7.836621E1,3.516651E1,0E0,2.4825434E1,0E0,6.1348724E-1,0E0,0E0,0E0,0E0,0E0,0E0,0E0,0E0,0E0,0E0,0E0,0E0,0E0,0E0,0E0,0E0,0E0,0E0,0E0,0E0],"parents":[2147483647,0,0,1,1,2,2,3,3,4,4,5,5,6,6,7,7,8,8,10,10,11,11,12,12,13,13,14,14,15,15,16,16,17,17,21,21,22,22,25,25,29,29,30,30,31,31,32,32,33,33,34,34,35,35,36,36,38,38,40,40],"right_children":[2,4,6,8,10,12,14,16,18,-1,20,22,24,26,28,30,32,34,-1,-1,-1,36,38,-1,-1,40,-1,-1,-1,42,44,46,48,50,52,54,56,-1,58,-1,60,-1,-1,-1,-1,-1,-1,-1,-1,-1,-1,-1,-1,-1,-1,-1,-1,-1,-1,-1,-1],"split_conditions":[8.192E3,1.9204992E5,6.5535E4,6.2586E4,2.56E2,3.6E1,2E0,1E0,6.5392E4,-1.0537262E-1,8E0,2.6123303E2,2.59164E1,2.6845637E4,7.1943467E3,4.1701172E2,3.032027E4,6.2617E4,-1.03619754E-1,1.05446175E-1,-9.318053E-2,2E0,5.069638E-1,-2.589782E-2,-1.0501553E-1,1E0,-7.422049E-2,-2.5376841E-2,-1.0499493E-1,4.6600208E-1,1.6384E4,1.025E3,1E0,1.7533094E1,3.5335815E0,6.424E4,1.46E4,-1.0293609E-1,2.37E2,-9.75104E-2,1.2336188E4,-6.021393E-2,-1.0278229E-1,-1.0444224E-1,-4.3639343E-2,-1.5067781E-2,-5.945244E-2,-8.7248205E-5,-1.02861695E-1,6.838682E-2,1.0520651E-1,-2.0292465E-2,6.538615E-2,6.857436E-2,1.0665206E-1,5.6064565E-2,-8.0281086E-2,1.7876064E-2,-1.002929E-1,-4.211901E-2,-2.6029265E-2],"split_indices":[22,1,22,23,22,31,16,17,23,0,24,6,1,5,6,6,5,23,0,0,0,16,8,0,0,16,0,0,0,7,7,22,16,7,6,22,22,0,23,0,7,0,0,0,0,0,0,0,0,0,0,0,0,0,0,0,0,0,0,0,0],"split_type":[0,0,0,0,0,0,0,0,0,0,0,0,0,0,0,0,0,0,0,0,0,0,0,0,0,0,0,0,0,0,0,0,0,0,0,0,0,0,0,0,0,0,0,0,0,0,0,0,0,0,0,0,0,0,0,0,0,0,0,0,0],"sum_hessian":[1.03032705E4,6.2078267E3,4.0954434E3,5.2433306E3,9.6449615E2,3.1656658E3,9.297776E2,5.0044097E3,2.3892104E2,2.0987814E2,7.5461804E2,3.0171948E3,1.4847075E2,7.755364E2,1.5424118E2,2.1458281E3,2.8585815E3,2.0072025E2,3.8200787E1,7.467879E2,7.830122E0,2.7823848E3,2.3481015E2,6.717599E0,1.4175314E2,7.3759546E2,3.7940933E1,5.6157603E0,1.4862541E2,1.6855469E3,4.6028125E2,2.5806768E3,2.779047E2,1.8049496E2,2.0225283E1,2.7056526E3,7.673228E1,2.5847416E1,2.0896274E2,1.0890619E1,7.2670483E2,1.511833E3,1.7371382E2,4.2912714E2,3.1154095E1,1.82832E3,7.523569E2,5.549921E0,2.7235477E2,1.5666305E1,1.6482866E2,1.2608068E1,7.6172132E0,7.623892E2,1.9432633E3,3.0637793E1,4.6094482E1,1.9037157E2,1.8591162E1,6.9249554E2,3.4209286E1],"tree_param":{"num_deleted":"0","num_feature":"33","num_nodes":"61","size_leaf_vector":"1"}},{"base_weights":[4.0752282E-3,-1.0013635E-1,1.0401778E0,1.2226074E-1,-5.152972E-1,1.0562575E-1,-9.278103E-2,2.1001732E-1,-8.556965E-1,-3.693214E-1,-1.0833108E0,1.339743E-1,1.0454654E-1,-1.06555976E-1,8.429304E-1,-8.81763E-1,-1.569656E-1,-1.8767508E0,-1.0443565E0,-1.0927385E-1,2.3950897E-1,1.077878E0,-1.09056786E-1,-0E0,-9.1246206E-1,8.6266845E-1,-2.894386E-1,-1.076731E-1,-3.770905E-1,-1.0531654E0,-4.7438467E-1,-4.3726224E-2,-5.0125355E-3,2.4981573E-2,-9.620657E-2,2.1771096E-2,1.1771139E-1,-5.2319597E-2,5.0062824E-2,-8.5071474E-2,-1.0511378E-1,9.83751E-2,-9.1116436E-2,-2.2089554E-2,-8.37806E-2,-5.905826E-2,-1.0563463E-1,-0E0,-8.721443E-2],"categories":[],"categories_nodes":[],"categories_segments":[],"categories_sizes":[],"default_left":[0,0,0,0,0,0,0,0,0,0,0,0,0,0,0,0,0,0,0,0,0,0,0,0,0,0,0,0,0,0,0,0,0,0,0,0,0,0,0,0,0,0,0,0,0,0,0,0,0],"id":23,"left_children":[1,3,5,7,9,-1,-1,11,13,15,17,19,-1,-1,21,23,25,27,29,31,33,35,-1,37,39,41,43,-1,-1,45,47,-1,-1,-1,-1,-1,-1,-1,-1,-1,-1,-1,-1,-1,-1,-1,-1,-1,-1],"loss_changes":[1.055087E3,8.197969E2,2.925238E1,4.9630948E2,2.5626025E2,0E0,0E0,3.3686136E2,1.7067435E2,2.68065E2,1.7299133E1,1.2492952E2,0E0,0E0,2.5191452E1,1.9611084E1,2.3583875E2,3.8230362E1,2.386963E0,2.849501E1,4.2196167E1,3.6750755E0,0E0,6.8642054E0,4.89093E0,4.40231E1,5.777356E1,0E0,0E0,8.71582E-2,2.1877203E0,0E0,0E0,0E0,0E0,0E0,0E0,0E0,0E0,0E0,0E0,0E0,0E0,0E0,0E0,0E0,0E0,0E0,0E0],"parents":[2147483647,0,0,1,1,2,2,3,3,4,4,7,7,8,8,9,9,10,10,11,11,14,14,15,15,16,16,17,17,18,18,19,19,20,20,21,21,23,23,24,24,25,25,26,26,29,29,30,30],"right_children":[2,4,6,8,10,-1,-1,12,14,16,18,20,-1,-1,22,24,26,28,30,32,34,36,-1,38,40,42,44,-1,-1,46,48,-1,-1,-1,-1,-1,-1,-1,-1,-1,-1,-1,-1,-1,-1,-1,-1,-1,-1],"split_conditions":[1.6572858E3,1E0,8E0,1.2851798E1,6.8E1,1.0562575E-1,-9.278103E-2,2E1,2.8680251E3,7.104874E-5,6E0,1E0,1.0454654E-1,-1.06555976E-1,8E0,1E0,9.685805E-2,4.8E0,1.1278125E3,1E0,7.020579E-2,1.2326851E2,-1.09056786E-1,8.191E3,2E0,7.1820273E3,2E0,-1.076731E-1,-3.770905E-1,1.22532375E-1,9.6E2,-4.3726224E-2,-5.0125355E-3,2.4981573E-2,-9.620657E-2,2.1771096E-2,1.1771139E-1,-5.2319597E-2,5.0062824E-2,-8.5071474E-2,-1.0511378E-1,9.83751E-2,-9.1116436E-2,-2.2089554E-2,-8.37806E-2,-5.905826E-2,-1.0563463E-1,-0E0,-8.721443E-2],"split_indices":[25,9,9,5,0,0,0,31,2,0,31,16,0,0,14,17,6,25,25,17,6,4,0,23,16,5,16,0,0,5,31,0,0,0,0,0,0,0,0,0,0,0,0,0,0,0,0,0,0],"split_type":[0,0,0,0,0,0,0,0,0,0,0,0,0,0,0,0,0,0,0,0,0,0,0,0,0,0,0,0,0,0,0,0,0,0,0,0,0,0,0,0,0,0,0,0,0,0,0,0,0],"sum_hessian":[9.768853E3,8.876825E3,8.9202747E2,5.7806562E3,3.0961692E3,8.8530804E2,6.7194185E0,5.3054604E3,4.7519574E2,2.4646074E3,6.315617E2,4.8640146E3,4.4144568E2,4.2332593E2,5.1869816E1,7.21035E2,1.7435725E3,2.7227844E1,6.0433386E2,1.4714556E3,3.392559E3,4.66905E1,5.1793184E0,2.4212835E1,6.9682214E2,1.9976105E2,1.5438115E3,2.0282513E1,6.9453316E0,5.941283E2,1.0205528E1,2.2358054E2,1.247875E3,3.364574E3,2.798505E1,5.264022E0,4.1426476E1,1.1746722E1,1.2466113E1,4.875773E2,2.0924484E2,1.8746631E2,1.2294736E1,1.3736923E3,1.7011923E2,5.5470576E0,5.8858124E2,5.0141E0,5.1914287E0],"tree_param":{"num_deleted":"0","num_feature":"33","num_nodes":"49","size_leaf_vector":"1"}},{"base_weights":[1.0792643E-3,-2.8367376E-1,4.428546E-1,-4.4401473E-1,8.2518727E-1,7.4063796E-1,-5.1896584E-1,-1.5078855E-1,-5.6937486E-1,1.0271788E0,-1.0318309E-1,8.2011783E-1,-9.954112E-1,-4.3001157E-1,-1.0154351E0,2.6892772E-1,-5.4120576E-1,-5.0823087E-1,-1.035645E0,-2.9601747E-2,1.0423809E-1,9.3392485E-1,-6.6224754E-2,-0E0,-1.03825845E-1,-4.1200215E-1,-6.754431E-1,-3.634643E-2,-1.0379487E-1,4.742181E-1,-9.978556E-1,-8.773994E-1,-2.0309548E-1,-6.0920316E-1,-2.4385527E-1,3.0346185E-3,-1.04931824E-1,9.5771456E-1,-9.8666114E-1,2.2272069E-2,-1.22834384E-1,-4.1883487E-1,1.8275065E-2,-5.814721E-1,-9.5157996E-2,4.867528E-2,-8.7360285E-2,-1.05014496E-1,-8.18825E-3,-8.9289084E-2,-2.9103313E-2,8.548E-2,-9.839051E-2,-7.151965E-2,-4.7208436E-2,-9.6655255E-3,-8.549744E-2,9.7334884E-2,-1.14308275E-1,-6.977951E-2,-1.12638555E-1,-4.8888154E-2,1.3684831E-2,-4.0950313E-2,-6.718122E-2,-7.3897064E-2,-4.764165E-2],"categories":[],"categories_nodes":[],"categories_segments":[],"categories_sizes":[],"default_left":[0,0,0,0,0,0,0,0,0,0,0,0,0,0,0,0,0,0,0,0,0,0,0,0,0,0,0,0,0,0,0,0,0,0,0,0,0,0,0,0,0,0,0,0,0,0,0,0,0,0,0,0,0,0,0,0,0,0,0,0,0,0,0,0,0,0,0],"id":24,"left_children":[1,3,5,7,9,11,13,15,17,19,-1,21,23,25,27,29,31,33,35,-1,-1,37,39,-1,-1,41,43,-1,-1,45,47,49,51,53,55,-1,-1,57,59,61,-1,63,-1,65,-1,-1,-1,-1,-1,-1,-1,-1,-1,-1,-1,-1,-1,-1,-1,-1,-1,-1,-1,-1,-1,-1,-1],"loss_changes":[1.1860935E3,1.0196317E3,1.0588544E3,1.8398438E2,2.728331E2,3.902295E2,3.802466E1,2.4627376E2,9.934851E1,1.3538757E1,0E0,2.7244226E2,5.358444E0,2.8981628E0,1.4190063E0,1.887851E2,8.8211E1,8.262622E1,6.045685E0,0E0,0E0,1.1025098E2,3.1823677E1,0E0,0E0,2.9260101E0,5.614033E-1,0E0,0E0,1.0929596E1,4.6509476E0,3.1636963E0,3.2268082E2,3.2174744E1,7.7167404E1,0E0,0E0,7.872998E1,2.3083687E-1,1.6846342E1,0E0,1.2408142E0,0E0,1.7667103E-1,0E0,0E0,0E0,0E0,0E0,0E0,0E0,0E0,0E0,0E0,0E0,0E0,0E0,0E0,0E0,0E0,0E0,0E0,0E0,0E0,0E0,0E0,0E0],"parents":[2147483647,0,0,1,1,2,2,3,3,4,4,5,5,6,6,7,7,8,8,9,9,11,11,12,12,13,13,14,14,15,15,16,16,17,17,18,18,21,21,22,22,25,25,26,26,29,29,30,30,31,31,32,32,33,33,34,34,37,37,38,38,39,39,41,41,43,43],"right_children":[2,4,6,8,10,12,14,16,18,20,-1,22,24,26,28,30,32,34,36,-1,-1,38,40,-1,-1,42,44,-1,-1,46,48,50,52,54,56,-1,-1,58,60,62,-1,64,-1,66,-1,-1,-1,-1,-1,-1,-1,-1,-1,-1,-1,-1,-1,-1,-1,-1,-1,-1,-1,-1,-1,-1,-1],"split_conditions":[8.192E3,2.0214188E4,6.5535E4,1.19E2,8E0,3.6E1,2E0,1E0,2E0,2E1,-1.0318309E-1,1E0,1.09E2,2.1290779E-4,7.1820273E3,1E0,2E0,6.62712E2,6.2830657E-1,-2.9601747E-2,1.0423809E-1,2E0,6E0,-0E0,-1.03825845E-1,1.9001961E-4,7E0,-3.634643E-2,-1.0379487E-1,1.692772E-5,4.23E2,6.4927305E3,2.0404415E1,1.025E3,1.025E3,3.0346185E-3,-1.04931824E-1,2.015907E6,4E0,7.414818E-5,-1.22834384E-1,2.8276207E4,1.8275065E-2,3.3283234E-4,-9.5157996E-2,4.867528E-2,-8.7360285E-2,-1.05014496E-1,-8.18825E-3,-8.9289084E-2,-2.9103313E-2,8.548E-2,-9.839051E-2,-7.151965E-2,-4.7208436E-2,-9.6655255E-3,-8.549744E-2,9.7334884E-2,-1.14308275E-1,-6.977951E-2,-1.12638555E-1,-4.8888154E-2,1.3684831E-2,-4.0950313E-2,-6.718122E-2,